tree
version=v4
num_class=1
num_tree_per_iteration=1
label_index=0
max_feature_idx=20
objective=quantile
feature_names=queue_length_current dock_utilization_pct incoming_shipment_rate_last_1h incoming_shipment_rate_last_15m avg_service_time_last_1h dwell_lag_1h dwell_lag_24h dwell_lag_168h dwell_rolling_mean_6h dwell_rolling_std_6h queue_rolling_max_3h hour_of_day_sin hour_of_day_cos day_of_week_sin day_of_week_cos is_weekend is_peak_hour hub_id_target_encoded hub_capacity hub_num_docks weather_severity_score
feature_infos=none [0.018712092526365021:0.62585034013605456] [0:39] [0:9.75] [10:20.408163265306122] [0.3103638219530086:70.3018710018668] [0.3103638219530086:61.187680182211892] [0.20975148883865366:61.187680182211892] [5.8840059401657667:22.606219116467759] [0.084143748392803391:25.029942167760492] none [-1:1] [-1:1] [-0.97492791218182362:0.97492791218182362] [-0.90096886790241903:1] [0:1] [0:1] [13.021967832962023:13.442847077217481] [120:480] [5:20] [0:3]
tree_sizes=745 791 790 790 785 904 792 789 897 787 797 891 888 791 792 793 879 885 884 797 882 790 802 795 885 880 801 871 803 796 871 868 881 802 897 889 883 898 896 889 881 902 883 800 798 892 891 897 888 884 810 885 890 892 788 900 895 889 805 886 893 879 890 886 804 881 880 881 898 909 889 879 883 898 884 889 898 885 895 903 890 886 900 901 900 894 872 813 812 801 893 892 904 806 794 803 793 802 794 881 890 880 812 883 881 804 896 908 891 887 798 794 900 885 890 797 883 899 894 816 895 894 894 795 882 887 880 892 896 886 799 906 881 894 891 883 886 898 796 885 880 901 890 899 890 790 796 904 894 891 879 892 899 894 874 879 887 884 898 781 891 905 878 712 889 889 887 900 886 890 879 897 888 904 886 894 898 906 902 794 881 884 890 787 795 701 883 794 790 794 875 791 800 793 790 784 706 883 887 705

Tree=0
num_leaves=7
num_cat=0
split_feature=20 1 1 20 20 1
split_gain=63.2259 35.0056 10.2162 4.9983 3.19 2.03967
threshold=1.5000000000000002 0.48152850004338993 0.1971469704143716 2.5000000000000004 1.0000000180025095e-35 0.33394599783038442
decision_type=2 2 2 2 2 2
left_child=2 3 4 -2 -1 -4
right_child=1 -3 5 -5 -6 -7
leaf_value=25.944589954018234 26.155682674558268 28.405539355970788 26.072920429181927 26.325911335669609 26.008283533841229 26.361972877746553
leaf_weight=15280 4681 120 3285 1326 6048 120
leaf_count=15280 4681 120 3285 1326 6048 120
internal_value=26.0296 26.0318 26.0291 26.0315 26.0289 26.0303
internal_weight=30860 6127 24733 6007 21328 3405
internal_count=30860 6127 24733 6007 21328 3405
is_linear=0
shrinkage=1


Tree=1
num_leaves=7
num_cat=0
split_feature=20 1 1 20 20 1
split_gain=57.8052 30.376 9.7065 4.33861 3.09918 2.06824
threshold=1.5000000000000002 0.48152850004338993 0.1971469704143716 2.5000000000000004 1.0000000180025095e-35 0.33394599783038442
decision_type=2 2 2 2 2 2
left_child=2 3 4 -2 -1 -4
right_child=1 -3 5 -5 -6 -7
leaf_value=-0.082960467493962825 0.12303787212341882 2.3185979064172462 0.042272959496793681 0.28915834020264047 -0.020804029061324968 0.32434959536714014
leaf_weight=15280 4681 120 3285 1326 6048 120
leaf_count=15280 4681 120 3285 1326 6048 120
internal_value=-1.40759e-05 0.00208397 -0.000533977 0.00184046 -0.000725001 0.000662195
internal_weight=30860 6127 24733 6007 21328 3405
internal_count=30860 6127 24733 6007 21328 3405
is_linear=0
shrinkage=0.0241334


Tree=2
num_leaves=7
num_cat=0
split_feature=20 1 1 20 20 1
split_gain=53.2961 25.9626 9.19845 4.17991 2.958 2.0874
threshold=1.5000000000000002 0.48152850004338993 0.1971469704143716 2.5000000000000004 1.0000000180025095e-35 0.33394599783038442
decision_type=2 2 2 2 2 2
left_child=2 3 4 -2 -1 -4
right_child=1 -3 5 -5 -6 -7
leaf_value=-0.080958350974481466 0.12006855235291414 2.2626423011669412 0.041252770084986651 0.28217997198518008 -0.020301957514313993 0.31652194320234361
leaf_weight=15280 4681 120 3285 1326 6048 120
leaf_count=15280 4681 120 3285 1326 6048 120
internal_value=-1.72038e-05 0.00199735 -0.000516415 0.00177219 -0.000702373 0.000648031
internal_weight=30860 6127 24733 6007 21328 3405
internal_count=30860 6127 24733 6007 21328 3405
is_linear=0
shrinkage=0.0241334


Tree=3
num_leaves=7
num_cat=0
split_feature=20 1 1 20 20 1
split_gain=50.9064 22.5835 8.8244 4.27873 2.78287 2.10664
threshold=1.5000000000000002 0.48152850004338993 0.1971469704143716 2.5000000000000004 1.0000000180025095e-35 0.33394599783038442
decision_type=2 2 2 2 2 2
left_child=2 3 4 -2 -1 -4
right_child=1 -3 5 -5 -6 -7
leaf_value=-0.07900455229455268 0.11717089230593476 2.2080370938231741 0.040257201292326072 0.27537001538242306 -0.019812002650930739 0.30888319874481174
leaf_weight=15280 4681 120 3285 1326 6048 120
leaf_count=15280 4681 120 3285 1326 6048 120
internal_value=-1.87677e-05 0.0019501 -0.000506658 0.00174006 -0.000688797 0.000633866
internal_weight=30860 6127 24733 6007 21328 3405
internal_count=30860 6127 24733 6007 21328 3405
is_linear=0
shrinkage=0.0241334


Tree=4
num_leaves=7
num_cat=0
split_feature=1 1 1 1 1 1
split_gain=39.1106 17.8995 7.40555 2.83361 1.96448 0.915776
threshold=0.22447636809590407 0.48152850004338993 0.19257792584863301 0.074625401684761269 0.1971469704143716 0.23046090400399771
decision_type=2 2 2 2 2 2
left_child=2 5 3 -1 -4 -2
right_child=1 -3 4 -5 -6 -7
leaf_value=-0.0827043475269892 0.30695470359127425 2.1547496947195861 0.15537651062001043 -0.027623265043756569 0.03455900722873529 0.18234047843922363
leaf_weight=5233 114 120 511 19329 3180 2373
leaf_count=5233 114 120 511 19329 3180 2373
internal_value=-2.18955e-05 0.00280494 -0.000282968 -0.000434439 0.00072461 0.00235851
internal_weight=30860 2607 28253 24562 3691 2487
internal_count=30860 2607 28253 24562 3691 2487
is_linear=0
shrinkage=0.0241334


Tree=5
num_leaves=8
num_cat=0
split_feature=16 13 6 2 8 6 14
split_gain=3.76941 3.50584 1.44628 1.2132 0.927564 0.579663 0.362951
threshold=1.0000000180025095e-35 -0.60785761079279388 13.345646429537025 4.5000000000000009 10.833420766620943 5.600497334583415 1.0000000180025095e-35
decision_type=2 2 2 2 2 2 2
left_child=3 5 -3 6 -5 -2 -1
right_child=1 2 -4 4 -6 -7 -8
leaf_value=-0.034956851497120967 0.034814267714899927 0.054690444625502495 0.0019887215001101904 -0.043837115997052666 0.0064361638759360311 -0.044579991958244122 -0.056753665982281189
leaf_weight=3446 131 7753 2875 4309 6939 2651 2756
leaf_count=3446 131 7753 2875 4309 6939 2651 2756
internal_value=-2.89332e-05 0.000275294 0.000474923 -0.000262732 -0.000113261 -0.000487078 -0.000533657
internal_weight=30860 13410 10628 17450 11248 2782 6202
internal_count=30860 13410 10628 17450 11248 2782 6202
is_linear=0
shrinkage=0.0241334


Tree=6
num_leaves=7
num_cat=0
split_feature=20 1 1 20 20 1
split_gain=46.7566 19.6179 7.79808 4.43563 2.90225 1.67424
threshold=1.5000000000000002 0.48152850004338993 0.1971469704143716 2.5000000000000004 1.0000000180025095e-35 0.33394599783038442
decision_type=2 2 2 2 2 2
left_child=2 3 4 -2 -1 -4
right_child=1 -3 5 -5 -6 -7
leaf_value=-0.075760660856506054 0.11149721729046785 2.1014284353847112 0.03785375601081966 0.26460981593200694 -0.018081174657580919 0.29570844558213716
leaf_weight=15280 4681 120 3285 1326 6048 120
leaf_count=15280 4681 120 3285 1326 6048 120
internal_value=-2.73693e-05 0.00185955 -0.000494951 0.00166376 -0.000666169 0.000577208
internal_weight=30860 6127 24733 6007 21328 3405
internal_count=30860 6127 24733 6007 21328 3405
is_linear=0
shrinkage=0.0241334


Tree=7
num_leaves=7
num_cat=0
split_feature=1 1 1 1 1 1
split_gain=34.3457 15.6194 6.29775 2.60539 1.79122 0.818094
threshold=0.22447636809590407 0.48152850004338993 0.19257792584863301 0.074625401684761269 0.1971469704143716 0.26334382294366449
decision_type=2 2 2 2 2 2
left_child=2 5 3 -1 -4 -2
right_child=1 -3 4 -5 -6 -7
leaf_value=-0.079489900532460134 0.15873783794663437 2.0507138635882369 0.14519028910900647 -0.026785298422358328 0.031618667838268569 0.27163351049376261
leaf_weight=5233 1928 120 511 19329 3180 559
leaf_count=5233 1928 120 511 19329 3180 559
internal_value=-3.83168e-05 0.00261073 -0.000282968 -0.000422649 0.000646203 0.00219372
internal_weight=30860 2607 28253 24562 3691 2487
internal_count=30860 2607 28253 24562 3691 2487
is_linear=0
shrinkage=0.0241334


Tree=8
num_leaves=8
num_cat=0
split_feature=12 13 12 7 8 9 5
split_gain=3.01888 2.6323 2.37963 0.883993 0.636293 0.613025 0.451128
threshold=1.0000000180025095e-35 -0.60785761079279388 -0.78656609248549325 19.501205231801567 10.219647896340833 8.1747864007337849 9.1391651264163833
decision_type=2 2 2 2 2 2 2
left_child=1 3 -3 -1 6 -6 -2
right_child=4 2 -4 -5 5 -7 -8
leaf_value=-0.026331594339120506 -0.047115388511840856 -0.012385627105254484 0.037401008305444239 -0.15980642226526384 -0.022077265648778169 -0.099601580805515358 -0.10094261931395875
leaf_weight=4343 1134 5677 11714 208 6079 553 1152
leaf_count=4343 1134 5677 11714 208 6079 553 1152
internal_value=-3.3625e-05 0.000118552 0.000253771 -0.000398023 -0.00040797 -0.000288093 -0.000755039
internal_weight=30860 21942 17391 4551 8918 6632 2286
internal_count=30860 21942 17391 4551 8918 6632 2286
is_linear=0
shrinkage=0.0241334


Tree=9
num_leaves=7
num_cat=0
split_feature=1 1 1 1 1 1
split_gain=31.5089 13.2069 5.97437 2.44315 1.82685 0.802316
threshold=0.22447636809590407 0.48152850004338993 0.19257792584863301 0.14187154737051036 0.1971469704143716 0.26334382294366449
decision_type=2 2 2 2 2 2
left_child=2 5 3 -1 -4 -2
right_child=1 -3 4 -5 -6 -7
leaf_value=-0.05476160623459328 0.15400434456049977 2.000320593083857 0.14153222209077981 -0.0089325789950145552 0.029952989739400075 0.26417546289750354
leaf_weight=15094 1928 120 511 9468 3180 559
leaf_count=15094 1928 120 511 9468 3180 559
internal_value=-3.75348e-05 0.00249975 -0.000271864 -0.000407913 0.000633135 0.00211616
internal_weight=30860 2607 28253 24562 3691 2487
internal_count=30860 2607 28253 24562 3691 2487
is_linear=0
shrinkage=0.0241334


Tree=10
num_leaves=7
num_cat=0
split_feature=1 1 1 16 1 1
split_gain=30.4281 12.0462 5.59895 2.3604 1.06551 0.79834
threshold=0.22447636809590407 0.48152850004338993 0.14187154737051036 1.0000000180025095e-35 0.031370255237523133 0.23046090400399771
decision_type=2 2 2 2 2 2
left_child=2 5 4 -4 -1 -2
right_child=1 -3 3 -5 -6 -7
leaf_value=-0.088137043470424725 0.28455545441695967 1.952046095306184 0.045065588051836289 -0.0094157728735689266 -0.050797939443754193 0.16071346875588852
leaf_weight=817 114 120 4536 8623 14277 2373
leaf_count=817 114 120 4536 8623 14277 2373
internal_value=-3.98807e-05 0.00245351 -0.000270156 9.36977e-05 -0.000587327 0.00208708
internal_weight=30860 2607 28253 13159 15094 2487
internal_count=30860 2607 28253 13159 15094 2487
is_linear=0
shrinkage=0.0241334


Tree=11
num_leaves=8
num_cat=0
split_feature=20 20 20 14 11 2 13
split_gain=38.9496 8.13357 6.07371 3.64901 1.8207 1.39272 1.08119
threshold=1.5000000000000002 2.5000000000000004 1.0000000180025095e-35 0.81174490092936691 -0.60355339059327362 12.500000000000002 -0.60785761079279388
decision_type=2 2 2 2 2 2 2
left_child=2 4 5 -3 -2 -1 -4
right_child=1 3 6 -5 -6 -7 -8
leaf_value=-0.080512745037307668 0.13435364704670139 0.24608669427180502 -0.038027743249957294 0.74754516272203386 0.069396624017241726 -0.040947958222183931 0.013041576088235775
leaf_weight=10524 2132 1133 2145 313 2549 5050 7014
leaf_count=10524 2132 1133 2145 313 2549 5050 7014
internal_value=-4.77003e-05 0.0016745 -0.000474462 0.00325542 0.00118463 -0.000764445 1.87022e-05
internal_weight=30860 6127 24733 1446 4681 15574 9159
internal_count=30860 6127 24733 1446 4681 15574 9159
is_linear=0
shrinkage=0.0241334


Tree=12
num_leaves=8
num_cat=0
split_feature=20 20 20 14 11 2 13
split_gain=36.3911 7.4263 5.73255 3.1204 1.63909 1.45136 1.05729
threshold=1.5000000000000002 2.5000000000000004 1.0000000180025095e-35 0.81174490092936691 -0.60355339059327362 12.500000000000002 -0.60785761079279388
decision_type=2 2 2 2 2 2 2
left_child=2 4 5 -3 -2 -1 -4
right_child=1 3 6 -5 -6 -7 -8
leaf_value=-0.078569700334965353 0.1311112393755495 0.24014779046967777 -0.037110005256678992 0.72950437095030118 0.067721848891953679 -0.039959745570156226 0.012726838771594841
leaf_weight=10524 2132 1133 2145 313 2549 5050 7014
leaf_count=10524 2132 1133 2145 313 2549 5050 7014
internal_value=-5.31741e-05 0.0016115 -0.000465681 0.00312213 0.0011434 -0.000747402 1.34338e-05
internal_weight=30860 6127 24733 1446 4681 15574 9159
internal_count=30860 6127 24733 1446 4681 15574 9159
is_linear=0
shrinkage=0.0241334


Tree=13
num_leaves=7
num_cat=0
split_feature=20 1 1 20 20 1
split_gain=34.8583 9.61337 6.38761 3.49514 2.6686 1.51728
threshold=1.5000000000000002 0.48152850004338993 0.1971469704143716 2.5000000000000004 1.0000000180025095e-35 0.33394599783038442
decision_type=2 2 2 2 2 2
left_child=2 3 4 -2 -1 -4
right_child=1 -3 5 -5 -6 -7
leaf_value=-0.067771493751624598 0.096697490748563042 1.8692904260935084 0.03489165721427176 0.23191954794890857 -0.015857074395294185 0.27281252376421383
leaf_weight=15280 4681 120 3285 1326 6048 120
leaf_count=15280 4681 120 3285 1326 6048 120
internal_value=-5.31741e-05 0.00157607 -0.0004569 0.00143887 -0.000611861 0.000513467
internal_weight=30860 6127 24733 6007 21328 3405
internal_count=30860 6127 24733 6007 21328 3405
is_linear=0
shrinkage=0.0241334


Tree=14
num_leaves=7
num_cat=0
split_feature=20 1 1 20 20 1
split_gain=32.4715 7.65361 5.97026 3.2526 2.60603 1.32948
threshold=1.5000000000000002 0.48152850004338993 0.1971469704143716 2.5000000000000004 1.0000000180025095e-35 0.33394599783038442
decision_type=2 2 2 2 2 2
left_child=2 3 4 -2 -1 -4
right_child=1 -3 5 -5 -6 -7
leaf_value=-0.066135938513222262 0.09436385342143265 1.8241781291785644 0.034049603578232925 0.22632254527805265 -0.015474389587017552 0.26622863535267027
leaf_weight=15280 4681 120 3285 1326 6048 120
leaf_count=15280 4681 120 3285 1326 6048 120
internal_value=-6.33396e-05 0.00150913 -0.000452997 0.00138667 -0.00060281 0.000485138
internal_weight=30860 6127 24733 6007 21328 3405
internal_count=30860 6127 24733 6007 21328 3405
is_linear=0
shrinkage=0.0241334


Tree=15
num_leaves=7
num_cat=0
split_feature=20 1 1 20 20 1
split_gain=30.8017 7.26511 5.60618 3.27668 2.55145 1.35255
threshold=1.5000000000000002 0.48152850004338993 0.1971469704143716 2.5000000000000004 1.0000000180025095e-35 0.33394599783038442
decision_type=2 2 2 2 2 2
left_child=2 3 4 -2 -1 -4
right_child=1 -3 5 -5 -6 -7
leaf_value=-0.064539854751539422 0.092086534651613483 1.780154544485399 0.033227871542902576 0.2208606172017043 -0.015100940256789146 0.25980363842461707
leaf_weight=15280 4681 120 3285 1326 6048 120
leaf_count=15280 4681 120 3285 1326 6048 120
internal_value=-6.56855e-05 0.00146582 -0.000445192 0.00134651 -0.000590365 0.000463891
internal_weight=30860 6127 24733 6007 21328 3405
internal_count=30860 6127 24733 6007 21328 3405
is_linear=0
shrinkage=0.0241334


Tree=16
num_leaves=8
num_cat=0
split_feature=20 20 20 12 12 16 13
split_gain=28.7751 5.48992 5.02286 4.13341 1.53566 1.13013 0.888689
threshold=1.5000000000000002 2.5000000000000004 1.0000000180025095e-35 -0.5 0.25881904510252057 1.0000000180025095e-35 -0.60785761079279388
decision_type=2 2 2 2 2 2 2
left_child=2 4 5 -3 -2 -1 -4
right_child=1 3 6 -5 -6 -7 -8
leaf_value=-0.078188992620218042 0.10562338225007022 0.40302268937562608 -0.035093844509501988 0.15216161457285826 -0.00089940296281493747 -0.03962605769848139 0.011309841814701066
leaf_weight=8836 3964 764 2145 682 717 6738 7014
leaf_count=8836 3964 764 2145 682 717 6738 7014
internal_value=-7.35051e-05 0.00140677 -0.000440314 0.00270563 0.00100428 -0.000704021 8.16545e-06
internal_weight=30860 6127 24733 1446 4681 15574 9159
internal_count=30860 6127 24733 1446 4681 15574 9159
is_linear=0
shrinkage=0.0241334


Tree=17
num_leaves=8
num_cat=0
split_feature=20 1 1 1 20 20 17
split_gain=27.414 6.59163 5.28662 2.24032 2.20806 1.7673 0.131443
threshold=1.5000000000000002 0.28969351934803872 0.13904686617325687 0.079475343762596018 1.0000000180025095e-35 1.0000000180025095e-35 13.131603351955851
decision_type=2 2 2 2 2 2 2
left_child=2 3 5 -2 -4 -1 -3
right_child=1 6 4 -5 -6 -7 -8
leaf_value=-0.082534009728537736 0.018238123055713328 1.1160089389824897 -0.030615301097284955 0.12397033959501115 0.024990518884924925 -0.031040370213305805 0.98748396715956555
leaf_weight=8622 965 84 6952 4968 4913 4246 110
leaf_count=8622 965 84 6952 4968 4913 4246 110
internal_value=-7.35051e-05 0.00137133 -0.000431533 0.00122668 -6.40577e-05 -0.000770285 0.00572153
internal_weight=30860 6127 24733 5933 11865 12868 194
internal_count=30860 6127 24733 5933 11865 12868 194
is_linear=0
shrinkage=0.0241334


Tree=18
num_leaves=8
num_cat=0
split_feature=20 1 1 20 20 20 8
split_gain=25.6217 6.36496 5.21455 2.16808 2.09489 1.68654 0.211522
threshold=1.5000000000000002 0.28969351934803872 0.13904686617325687 2.5000000000000004 1.0000000180025095e-35 1.0000000180025095e-35 10.967790957975671
decision_type=2 2 2 2 2 2 2
left_child=2 3 5 -2 -4 -1 -3
right_child=1 6 4 -5 -6 -7 -8
leaf_value=-0.080542185076530243 0.084431351789947581 0.69378839082215071 -0.029876450390106488 0.1997267834183421 0.024387413186496242 -0.030291261151457794 1.1073790296305899
leaf_weight=8622 4681 95 6952 1252 4913 4246 99
leaf_count=8622 4681 95 6952 1252 4913 4246 99
internal_value=-7.27231e-05 0.00132408 -0.000418849 0.00118196 -5.38899e-05 -0.000755284 0.00559875
internal_weight=30860 6127 24733 5933 11865 12868 194
internal_count=30860 6127 24733 5933 11865 12868 194
is_linear=0
shrinkage=0.0241334


Tree=19
num_leaves=7
num_cat=0
split_feature=1 1 1 16 1 1
split_gain=18.0087 5.18655 5.16845 1.84599 1.03353 0.721352
threshold=0.22447636809590407 0.48152850004338993 0.14187154737051036 1.0000000180025095e-35 0.074625401684761269 0.26334382294366449
decision_type=2 2 2 2 2 2
left_child=2 5 4 -4 -1 -2
right_child=1 -3 3 -5 -6 -7
leaf_value=-0.070027696640112144 0.12244098657645018 1.6868923124820119 0.033373357746629799 -0.0094699101158326783 -0.035452018855073035 0.21642898207261538
leaf_weight=5233 1928 120 4536 8623 9861 559
leaf_count=5233 1928 120 4536 8623 9861 559
internal_value=-7.5069e-05 0.00184314 -0.00025222 9.7365e-05 -0.000556953 0.00160239
internal_weight=30860 2607 28253 13159 15094 2487
internal_count=30860 2607 28253 13159 15094 2487
is_linear=0
shrinkage=0.0241334


Tree=20
num_leaves=8
num_cat=0
split_feature=20 1 1 20 20 20 8
split_gain=23.7498 5.13201 4.93946 2.17908 1.9884 1.57645 0.0822278
threshold=1.5000000000000002 0.28969351934803872 0.13904686617325687 2.5000000000000004 1.0000000180025095e-35 1.0000000180025095e-35 10.967790957975671
decision_type=2 2 2 2 2 2 2
left_child=2 3 5 -2 -4 -1 -3
right_child=1 6 4 -5 -6 -7 -8
leaf_value=-0.077698111896789532 0.080572030640300912 0.65762678882974146 -0.029966968785593271 0.19345548255601341 0.023662618248983799 -0.028580500063093109 1.039943816414558
leaf_weight=8622 4681 95 6952 1252 4913 4246 99
leaf_count=8622 4681 95 6952 1252 4913 4246 99
internal_value=-7.5851e-05 0.00126896 -0.000409093 0.0011413 -5.38899e-05 -0.000736534 0.00510763
internal_weight=30860 6127 24733 5933 11865 12868 194
internal_count=30860 6127 24733 5933 11865 12868 194
is_linear=0
shrinkage=0.0241334


Tree=21
num_leaves=7
num_cat=0
split_feature=1 1 1 16 9 9
split_gain=16.4798 4.78584 4.15684 1.74934 1.0709 0.775147
threshold=0.22447636809590407 0.14187154737051036 0.48152850004338993 1.0000000180025095e-35 0.90437482518622991 1.5132250638452682
decision_type=2 2 2 2 2 2
left_child=1 4 5 -3 -1 -2
right_child=2 3 -4 -5 -6 -7
leaf_value=0.076695214994887725 0.26376906344744949 0.032092827178148813 1.6303111411751181 -0.0094386255045473492 -0.0467200543850061 0.12139946028141117
leaf_weight=91 118 4536 120 8623 15003 2369
leaf_count=91 118 4536 120 8623 15003 2369
internal_value=-7.5069e-05 -0.000244533 0.00175991 9.18641e-05 -0.00053777 0.00154423
internal_weight=30860 28253 2607 13159 15094 2487
internal_count=30860 28253 2607 13159 15094 2487
is_linear=0
shrinkage=0.0241334


Tree=22
num_leaves=7
num_cat=0
split_feature=20 1 1 20 20 20
split_gain=22.057 5.1134 4.6763 2.57507 1.94511 1.44023
threshold=1.5000000000000002 0.48152850004338993 0.13904686617325687 2.5000000000000004 1.0000000180025095e-35 1.0000000180025095e-35
decision_type=2 2 2 2 2 2
left_child=2 3 5 -2 -4 -1
right_child=1 -3 4 -5 -6 -7
leaf_value=-0.074695480962308686 0.077234144126846704 1.5909662222487775 -0.029072254067682084 0.18713401685548511 0.023080567706856028 -0.026763243138912724
leaf_weight=8622 4681 120 6952 1326 4913 4246
leaf_count=8622 4681 120 6952 1326 4913 4246
internal_value=-7.42871e-05 0.00122172 -0.000395434 0.00112162 -4.98228e-05 -0.000714033
internal_weight=30860 6127 24733 6007 11865 12868
internal_count=30860 6127 24733 6007 11865 12868
is_linear=0
shrinkage=0.0241334


Tree=23
num_leaves=7
num_cat=0
split_feature=1 1 1 16 1 1
split_gain=15.0321 4.34136 4.3192 1.59404 1.09259 0.815036
threshold=0.22447636809590407 0.14187154737051036 0.48152850004338993 1.0000000180025095e-35 0.074625401684761269 0.23046090400399771
decision_type=2 2 2 2 2 2
left_child=1 4 5 -3 -1 -2
right_child=2 3 -4 -5 -6 -7
leaf_value=-0.065833470197095581 0.20926421637985182 0.031000182804239593 1.5525708292173563 -0.0087734819851841804 -0.030972842017433954 0.11863439549708825
leaf_weight=5233 114 4536 120 8623 9861 2373
leaf_count=5233 114 4536 120 8623 9861 2373
internal_value=-7.5851e-05 -0.0002377 0.00167667 8.2696e-05 -0.000516988 0.00145698
internal_weight=30860 28253 2607 13159 15094 2487
internal_count=30860 28253 2607 13159 15094 2487
is_linear=0
shrinkage=0.0241334


Tree=24
num_leaves=8
num_cat=0
split_feature=20 20 20 12 5 7 13
split_gain=19.7107 4.03263 3.97342 2.78457 1.18989 1.15382 0.772171
threshold=1.5000000000000002 1.0000000180025095e-35 2.5000000000000004 -0.37940952255126015 11.754111168273317 14.30453092307741 -0.60785761079279388
decision_type=2 2 2 2 2 2 2
left_child=1 4 5 -4 -1 -2 -3
right_child=2 6 3 -5 -6 -7 -8
leaf_value=-0.063771376428490373 0.060877148814361431 -0.027925598064675986 0.29332815570637572 0.13394570768986486 -0.031318553828677764 0.14308506062245141 0.010293058490059509
leaf_weight=8952 3769 2145 818 628 6622 912 7014
leaf_count=8952 3769 2145 818 628 6622 912 7014
internal_value=-7.42871e-05 -0.000377872 0.00115085 0.0022558 -0.000614159 0.000808472 2.39706e-05
internal_weight=30860 24733 6127 1446 15574 4681 9159
internal_count=30860 24733 6127 1446 15574 4681 9159
is_linear=0
shrinkage=0.0241334


Tree=25
num_leaves=8
num_cat=0
split_feature=20 1 1 20 20 1 17
split_gain=18.2673 4.61454 4.27039 1.91869 1.60847 0.822308 0.109249
threshold=1.5000000000000002 0.28969351934803872 0.1971469704143716 1.0000000180025095e-35 2.5000000000000004 0.33394599783038442 13.131603351955851
decision_type=2 2 2 2 2 2 2
left_child=2 4 3 -1 -2 -4 -3
right_child=1 6 5 -5 -6 -7 -8
leaf_value=-0.053923082957274424 0.072007358293670665 0.87425520348949004 0.03025295282462508 -0.012027575691883069 0.17674860797286088 0.24711452686006252 0.75075271803143506
leaf_weight=15280 4681 84 3285 6048 1252 120 110
leaf_count=15280 4681 84 3285 6048 1252 120 110
internal_value=-7.97608e-05 0.00109966 -0.000372018 -0.000498721 0.000978661 0.000421397 0.00473929
internal_weight=30860 6127 24733 21328 5933 3405 194
internal_count=30860 6127 24733 21328 5933 3405 194
is_linear=0
shrinkage=0.0241334


Tree=26
num_leaves=7
num_cat=0
split_feature=1 1 1 1 6 1
split_gain=12.8084 4.20353 2.04196 2.00755 1.15202 0.614221
threshold=0.19257792584863301 0.48152850004338993 0.077041261621181814 0.22447636809590407 13.345646429537025 0.072139722985297042
decision_type=2 2 2 2 2 2
left_child=2 3 5 -2 -4 -1
right_child=1 -3 4 -5 -6 -7
leaf_value=-0.053605576818342354 0.038916150893606956 1.4899048459259248 -0.0086914026398975421 0.11622515336456274 -0.044422605985617043 -0.094039332356101638
leaf_weight=4383 3691 120 13924 2487 5379 876
leaf_count=4383 3691 120 13924 2487 5379 876
internal_value=-8.13247e-05 0.000889408 -0.000330299 0.000801249 -0.000215388 -0.000751767
internal_weight=30860 6298 24562 6178 19303 5259
internal_count=30860 6298 24562 6178 19303 5259
is_linear=0
shrinkage=0.0241334


Tree=27
num_leaves=8
num_cat=0
split_feature=20 20 20 12 2 5 13
split_gain=16.5519 3.56157 3.2711 2.14076 1.15081 1.1085 0.73208
threshold=1.5000000000000002 1.0000000180025095e-35 2.5000000000000004 -0.5 12.500000000000002 21.622547044010485 -0.60785761079279388
decision_type=2 2 2 2 2 2 2
left_child=1 4 5 -4 -1 -2 -3
right_child=2 6 3 -5 -6 -7 -8
leaf_value=-0.060020389297475628 0.064609129927123907 -0.026234295244102781 0.29074634007182887 0.12311716490566429 -0.025489658830140465 0.23867131234273448 0.0089927283333026287
leaf_weight=10524 4579 2145 764 682 5050 102 7014
leaf_count=10524 4579 2145 764 682 5050 102 7014
internal_value=-8.60165e-05 -0.000364213 0.00103667 0.00203922 -0.000586271 0.000726027 1.34338e-05
internal_weight=30860 24733 6127 1446 15574 4681 9159
internal_count=30860 24733 6127 1446 15574 4681 9159
is_linear=0
shrinkage=0.0241334


Tree=28
num_leaves=7
num_cat=0
split_feature=20 1 1 20 20 20
split_gain=15.7942 3.89975 3.62448 1.91029 1.63419 1.25682
threshold=1.5000000000000002 0.13904686617325687 0.48152850004338993 2.5000000000000004 1.0000000180025095e-35 1.0000000180025095e-35
decision_type=2 2 2 2 2 2
left_child=1 5 3 -2 -3 -1
right_child=2 4 -4 -5 -6 -7
leaf_value=-0.066545488442627185 0.068603467198811649 -0.025117928637746437 1.4469317135098174 0.170390640834234 0.021005035859757243 -0.023367028589497442
leaf_weight=8622 4681 6952 120 1326 4913 4246
leaf_count=8622 4681 6952 120 1326 4913 4246
internal_value=-8.75804e-05 -0.000359334 0.00100911 0.000924846 -4.37221e-05 -0.00065028
internal_weight=30860 24733 6127 6007 11865 12868
internal_count=30860 24733 6127 6007 11865 12868
is_linear=0
shrinkage=0.0241334


Tree=29
num_leaves=7
num_cat=0
split_feature=1 1 1 1 6 1
split_gain=11.0191 3.62281 1.97892 1.60985 1.1948 0.539414
threshold=0.19257792584863301 0.48152850004338993 0.077041261621181814 0.24395243734571673 13.345646429537025 0.072139722985297042
decision_type=2 2 2 2 2 2
left_child=2 3 5 -2 -4 -1
right_child=1 -3 4 -5 -6 -7
leaf_value=-0.052921367720237179 0.048702710121638688 1.412012360067284 -0.0083601718994277142 0.14694201092727988 -0.041875453422633352 -0.08871538290452205
leaf_weight=4383 4872 120 13924 1306 5379 876
leaf_count=4383 4872 120 13924 1306 5379 876
internal_value=-8.75804e-05 0.000812801 -0.00031851 0.000730964 -0.000205388 -0.00073342
internal_weight=30860 6298 24562 6178 19303 5259
internal_count=30860 6298 24562 6178 19303 5259
is_linear=0
shrinkage=0.0241334


Tree=30
num_leaves=8
num_cat=0
split_feature=20 20 20 12 7 2 5
split_gain=14.6371 3.35132 2.95498 1.66263 1.24143 1.11937 0.733893
threshold=1.5000000000000002 1.0000000180025095e-35 2.5000000000000004 -0.5 14.30453092307741 12.500000000000002 12.955166918538222
decision_type=2 2 2 2 2 2 2
left_child=1 5 4 -4 -2 -1 -3
right_child=2 6 3 -5 -6 -7 -8
leaf_value=-0.056549988804386657 0.052632464222417283 -0.0086607342197312625 0.26522831706288769 0.11634314728014654 0.12851733660300285 -0.023019139396397322 0.023172136509196681
leaf_weight=10524 3769 6282 764 682 912 5050 2877
leaf_count=10524 3769 6282 764 682 912 5050 2877
internal_value=-8.60165e-05 -0.000347627 0.000969735 0.00192259 0.000674499 -0.000563031 1.87022e-05
internal_weight=30860 24733 6127 1446 4681 15574 9159
internal_count=30860 24733 6127 1446 4681 15574 9159
is_linear=0
shrinkage=0.0241334


Tree=31
num_leaves=8
num_cat=0
split_feature=20 20 20 12 7 2 7
split_gain=14.2251 3.15607 2.74636 1.47614 1.17618 1.12138 0.717279
threshold=1.5000000000000002 1.0000000180025095e-35 2.5000000000000004 -0.5 14.30453092307741 12.500000000000002 11.959210078509141
decision_type=2 2 2 2 2 2 2
left_child=1 5 4 -4 -2 -1 -3
right_child=2 6 3 -5 -6 -7 -8
leaf_value=-0.055185246413440123 0.051362264942400197 0.018477587899901241 0.25882746119663436 0.11353539385090036 0.12541577883187111 -0.022463609749061093 -0.016892830071299651
leaf_weight=10524 3769 5306 764 682 912 5050 3853
leaf_count=10524 3769 5306 764 682 912 5050 3853
internal_value=-8.67985e-05 -0.0003447 0.000953986 0.00187261 0.000669346 -0.000553735 1.07996e-05
internal_weight=30860 24733 6127 1446 4681 15574 9159
internal_count=30860 24733 6127 1446 4681 15574 9159
is_linear=0
shrinkage=0.0241334


Tree=32
num_leaves=8
num_cat=0
split_feature=20 20 20 12 5 7 7
split_gain=13.7137 3.01901 2.741 1.45256 1.09076 1.06581 0.700699
threshold=1.5000000000000002 1.0000000180025095e-35 2.5000000000000004 -0.60355339059327384 11.879140310527378 14.30453092307741 11.983821091466597
decision_type=2 2 2 2 2 2 2
left_child=1 4 5 -4 -1 -2 -3
right_child=2 6 3 -5 -6 -7 -8
leaf_value=-0.054727057411616403 0.050122719864780611 0.017898698738810549 0.25643480671625779 0.13786859925016093 -0.022827669698146313 0.12238907213423601 -0.016793958569546474
leaf_weight=9194 3769 5341 611 835 6380 912 3818
leaf_count=9194 3769 5341 611 835 6380 912 3818
internal_value=-8.36706e-05 -0.000336894 0.000938237 0.00185595 -0.00054134 0.000653888 1.07996e-05
internal_weight=30860 24733 6127 1446 15574 4681 9159
internal_count=30860 24733 6127 1446 15574 4681 9159
is_linear=0
shrinkage=0.0241334


Tree=33
num_leaves=7
num_cat=0
split_feature=1 1 1 1 11 1
split_gain=10.2449 3.01059 1.94157 1.4761 1.10104 0.512673
threshold=0.19257792584863301 0.48152850004338993 0.077041261621181814 0.24395243734571673 0.37940952255126054 0.072139722985297042
decision_type=2 2 2 2 2 2
left_child=2 3 5 -2 -4 -1
right_child=1 -3 4 -5 -6 -7
leaf_value=-0.051040410872263624 0.044920295679185034 1.3590998524852631 -0.0071840450013953604 0.13545692507414506 -0.037686908490680925 -0.082911318300426154
leaf_weight=4383 4872 120 12491 1306 6812 876
leaf_count=4383 4872 120 12491 1306 6812 876
internal_value=-8.60165e-05 0.000782158 -0.000308685 0.000707536 -0.000196637 -0.000719659
internal_weight=30860 6298 24562 6178 19303 5259
internal_count=30860 6298 24562 6178 19303 5259
is_linear=0
shrinkage=0.0241334


Tree=34
num_leaves=8
num_cat=0
split_feature=11 6 2 5 11 5 11
split_gain=2.27235 1.60196 1.25629 0.958634 1.0164 0.541487 0.496571
threshold=-0.60355339059327362 15.917537868538153 13.500000000000002 13.045834465888825 -0.70710678118654735 22.678208502213383 0.12940952255126045
decision_type=2 2 2 2 2 2 2
left_child=3 2 -2 4 -1 -5 -3
right_child=1 6 -4 5 -6 -7 -8
leaf_value=-0.0084965225223485787 -0.022990818008188349 -0.033430918588451028 0.024025083157785825 0.040154359120051455 0.044162248819801214 -0.035879754554421273 -0.072992682434695172
leaf_weight=7282 12253 747 3465 3880 1268 285 1680
leaf_count=7282 12253 747 3465 3880 1268 285 1680
internal_value=-8.13247e-05 -0.000254665 -0.00016549 0.000166043 1.97518e-05 0.000466157 -0.000831412
internal_weight=30860 18145 15718 12715 8550 4165 2427
internal_count=30860 18145 15718 12715 8550 4165 2427
is_linear=0
shrinkage=0.0241334


Tree=35
num_leaves=8
num_cat=0
split_feature=20 1 20 1 20 20 7
split_gain=12.415 3.30934 2.52992 1.53949 1.38334 1.07263 1.01827
threshold=1.5000000000000002 0.13904686617325687 2.5000000000000004 0.10917806482459529 1.0000000180025095e-35 1.0000000180025095e-35 14.30453092307741
decision_type=2 2 2 2 2 2 2
left_child=1 5 6 -4 -3 -1 -2
right_child=2 4 3 -5 -6 -7 -8
leaf_value=-0.059079042694542575 0.048792320364262891 -0.021583533186024923 0.025663289272074435 0.2175536024869511 0.01784279498257324 -0.020929020785488854 0.11906950004550201
leaf_weight=8622 3769 6952 430 1016 4913 4246 912
leaf_count=8622 3769 6952 430 1016 4913 4246 912
internal_value=-8.13247e-05 -0.00032226 0.000890991 0.00177265 -3.15207e-05 -0.000590277 0.000617819
internal_weight=30860 24733 6127 1446 11865 12868 4681
internal_count=30860 24733 6127 1446 11865 12868 4681
is_linear=0
shrinkage=0.0241334


Tree=36
num_leaves=8
num_cat=0
split_feature=20 20 20 12 5 5 5
split_gain=11.6623 2.8487 2.24124 1.23589 1.09209 1.0145 0.684096
threshold=1.5000000000000002 1.0000000180025095e-35 2.5000000000000004 -0.60355339059327384 11.879140310527378 21.622547044010485 12.955166918538222
decision_type=2 2 2 2 2 2 2
left_child=1 4 5 -4 -1 -2 -3
right_child=2 6 3 -5 -6 -7 -8
leaf_value=-0.051026125872852601 0.052563279279110607 -0.0087269752020298803 0.23783654194083517 0.12966948515688889 -0.020394823231275099 0.22084860073420268 0.022602110986783563
leaf_weight=9194 4579 6282 611 835 6380 102 2877
leaf_count=9194 4579 6282 611 835 6380 102 2877
internal_value=-8.28887e-05 -0.000316406 0.000859493 0.00168935 -0.000515001 0.00060236 2.13364e-05
internal_weight=30860 24733 6127 1446 15574 4681 9159
internal_count=30860 24733 6127 1446 15574 4681 9159
is_linear=0
shrinkage=0.0241334


Tree=37
num_leaves=8
num_cat=0
split_feature=11 6 16 5 11 5 5
split_gain=2.14693 1.61789 1.11063 0.909537 0.956027 0.554157 0.529189
threshold=-0.60355339059327362 13.679570062917254 1.0000000180025095e-35 13.045834465888825 -0.70710678118654735 3.4605573957241171 22.678208502213383
decision_type=2 2 2 2 2 2 2
left_child=3 2 -2 4 -1 -3 -5
right_child=1 5 -4 6 -6 -7 -8
leaf_value=-0.0081813462916727978 -0.023963002325641282 0.023689703341663371 0.014730195568147341 0.039067864072146401 0.043081202789069975 -0.054644060350915805 -0.035989927090062351
leaf_weight=7282 8868 85 5098 3880 1268 4094 285
leaf_count=7282 8868 85 5098 3880 1268 4094 285
internal_value=-7.81969e-05 -0.000246686 -0.000121976 0.000162248 1.97518e-05 -0.000663133 0.000454575
internal_weight=30860 18145 13966 12715 8550 4179 4165
internal_count=30860 18145 13966 12715 8550 4179 4165
is_linear=0
shrinkage=0.0241334


Tree=38
num_leaves=8
num_cat=0
split_feature=20 1 20 1 20 20 1
split_gain=11.4689 3.09277 2.173 1.29569 1.19662 1.01033 0.975568
threshold=1.5000000000000002 0.13904686617325687 2.5000000000000004 0.10917806482459529 1.0000000180025095e-35 1.0000000180025095e-35 0.079475343762596018
decision_type=2 2 2 2 2 2 2
left_child=1 5 6 -4 -3 -1 -2
right_child=2 4 3 -5 -6 -7 -8
leaf_value=-0.056357318988212245 -0.027122383316811122 -0.019695164324857323 0.023159294043005565 0.20696513514537879 0.017146612457990679 -0.019415993943078743 0.069000537652158217
leaf_weight=8622 624 6952 430 1016 4913 4246 4057
leaf_count=8622 624 6952 430 1016 4913 4246 4057
internal_value=-7.89788e-05 -0.000310552 0.000855556 0.00167269 -2.94872e-05 -0.000569651 0.00060236
internal_weight=30860 24733 6127 1446 11865 12868 4681
internal_count=30860 24733 6127 1446 11865 12868 4681
is_linear=0
shrinkage=0.0241334


Tree=39
num_leaves=8
num_cat=0
split_feature=12 6 9 7 6 9 12
split_gain=1.29065 1.11136 1.18661 0.671029 0.61879 0.612191 0.557514
threshold=1.0000000180025095e-35 13.126714638592107 1.5607737984474488 11.843514658771946 6.834290742476349 1.4532163873021651 0.60355339059327384
decision_type=2 2 2 2 2 2 2
left_child=1 4 -3 5 -1 -2 -5
right_child=3 2 -4 6 -6 -7 -8
leaf_value=-0.018443776988361728 0.15720606043462329 0.15555888364797449 -0.029095150660905036 0.015220898515549485 0.014017889769798097 -0.037484499757559353 -0.041341080151219789
leaf_weight=1991 85 223 5920 2117 13808 5380 1336
leaf_count=1991 85 223 5920 2117 13808 5380 1336
internal_value=-7.6633e-05 2.28741e-05 -0.000252504 -0.000321398 0.000129971 -0.000487739 -5.79672e-05
internal_weight=30860 21942 6143 8918 15799 5465 3453
internal_count=30860 21942 6143 8918 15799 5465 3453
is_linear=0
shrinkage=0.0241334


Tree=40
num_leaves=8
num_cat=0
split_feature=1 1 1 6 8 1 5
split_gain=8.12094 2.46522 1.44549 1.39226 1.23533 0.419819 0.306777
threshold=0.19257792584863301 0.33394599783038442 0.077041261621181814 13.345646429537025 10.261445986574648 0.02797984175810575 11.436063774440898
decision_type=2 2 2 2 2 2 2
left_child=2 4 5 -4 -2 -1 -3
right_child=1 6 3 -5 -6 -7 -8
leaf_value=-0.063380797544693251 0.094604871852665057 0.55941297901894238 -0.0054053686157345222 -0.035734941663720196 0.040478874762836334 -0.051290910722063883 0.71943549091624159
leaf_weight=383 1682 155 13924 5379 4376 4876 85
leaf_count=383 1682 155 13924 5379 4376 4876 85
internal_value=-7.5069e-05 0.00069789 -0.000273317 -0.000176636 0.000602084 -0.000627925 0.00308435
internal_weight=30860 6298 24562 19303 6058 5259 240
internal_count=30860 6298 24562 19303 6058 5259 240
is_linear=0
shrinkage=0.0241334


Tree=41
num_leaves=8
num_cat=0
split_feature=11 12 5 11 18 5 5
split_gain=1.92948 0.973565 0.814639 0.802079 0.550919 0.499062 0.461673
threshold=-0.60355339059327362 -0.37940952255126015 13.045834465888825 -0.70710678118654735 300.00000000000006 22.678208502213383 21.622547044010485
decision_type=2 2 2 2 2 2 2
left_child=2 6 3 -1 -3 -4 -2
right_child=1 4 5 -5 -6 -7 -8
leaf_value=-0.0076171060805447855 -0.011921924300208194 -0.057484293611866639 0.0365597350565438 0.039029716279510858 -0.023702847834423391 -0.035872598511689842 0.063137987994092717
leaf_weight=7282 11362 2924 3880 1268 3588 285 271
leaf_count=7282 11362 2924 3880 1268 3588 285 271
internal_value=-7.89788e-05 -0.000238707 0.000148964 1.41083e-05 -0.000474921 0.000425621 -0.000106402
internal_weight=30860 18145 12715 8550 6512 4165 11633
internal_count=30860 18145 12715 8550 6512 4165 11633
is_linear=0
shrinkage=0.0241334


Tree=42
num_leaves=8
num_cat=0
split_feature=20 20 20 5 5 2 7
split_gain=10.6718 2.46584 1.99008 1.07685 1.03248 0.975678 0.751858
threshold=1.5000000000000002 1.0000000180025095e-35 2.5000000000000004 11.754111168273317 21.622547044010485 4.5000000000000009 11.983821091466597
decision_type=2 2 2 2 2 2 2
left_child=1 3 4 -1 -2 -4 -3
right_child=2 6 5 -5 -6 -7 -8
leaf_value=-0.047596955849841006 0.048282250976186485 0.01571580485180607 0.045854849782942533 -0.019272074813489953 0.21152693455334728 0.21510672274863044 -0.015524991571592137
leaf_weight=8952 4579 5341 453 6622 102 993 3818
leaf_count=8952 4579 5341 453 6622 102 993 3818
internal_value=-7.74149e-05 -0.000300795 0.000824058 -0.000485564 0.000581749 0.00160605 1.34338e-05
internal_weight=30860 24733 6127 15574 4681 1446 9159
internal_count=30860 24733 6127 15574 4681 1446 9159
is_linear=0
shrinkage=0.0241334


Tree=43
num_leaves=7
num_cat=0
split_feature=1 1 1 8 11 1
split_gain=7.02102 2.06721 1.38993 1.21432 0.864386 0.435124
threshold=0.19257792584863301 0.48152850004338993 0.077041261621181814 10.261445986574648 0.37940952255126054 0.02797984175810575
decision_type=2 2 2 2 2 2
left_child=2 3 5 -2 -4 -1
right_child=1 -3 4 -5 -6 -7
leaf_value=-0.05962084298625038 0.090181759787454643 1.2881831335312641 -0.0055009981740082609 0.04026527777598949 -0.032343394081286815 -0.049095277192967995
leaf_weight=383 1698 120 12491 4480 6812 4876
leaf_count=383 1698 120 12491 4480 6812 4876
internal_value=-8.21067e-05 0.000636605 -0.00026644 0.000574775 -0.000171636 -0.000614165
internal_weight=30860 6298 24562 6178 19303 5259
internal_count=30860 6298 24562 6178 19303 5259
is_linear=0
shrinkage=0.0241334


Tree=44
num_leaves=7
num_cat=0
split_feature=1 1 1 6 8 1
split_gain=6.60729 2.09291 1.34316 1.37372 1.2381 0.38234
threshold=0.19257792584863301 0.48152850004338993 0.077041261621181814 13.345646429537025 10.261445986574648 0.02797984175810575
decision_type=2 2 2 2 2 2
left_child=2 4 5 -4 -2 -1
right_child=1 -3 3 -5 -6 -7
leaf_value=-0.058181990503206354 0.088005369074136808 1.2570949199559498 -0.0036405841676119557 -0.033850116072837402 0.039293540510855547 -0.047910442193048144
leaf_weight=383 1698 120 13924 5379 4480 4876
leaf_count=383 1698 120 13924 5379 4480 4876
internal_value=-7.97608e-05 0.000617453 -0.000258581 -0.000165385 0.000555251 -0.000600404
internal_weight=30860 6298 24562 19303 6178 5259
internal_count=30860 6298 24562 19303 6178 5259
is_linear=0
shrinkage=0.0241334


Tree=45
num_leaves=8
num_cat=0
split_feature=20 1 20 5 20 20 1
split_gain=9.26625 2.55472 1.58991 1.0689 0.915202 0.901252 0.839436
threshold=1.5000000000000002 0.13904686617325687 2.5000000000000004 21.622547044010485 1.0000000180025095e-35 1.0000000180025095e-35 0.10917806482459529
decision_type=2 2 2 2 2 2 2
left_child=1 4 3 -2 -1 -3 -4
right_child=2 5 6 -5 -6 -7 -8
leaf_value=-0.0513831034178098 0.046115895472833866 -0.018714749122906663 0.025961812941722878 0.206428622657126 -0.016564252041645969 0.015803405915134541 0.18509677861677348
leaf_weight=8622 4579 6952 430 102 4246 4913 1016
leaf_count=8622 4579 6952 430 102 4246 4913 1016
internal_value=-8.28887e-05 -0.000291039 0.000757126 0.000540527 -0.000526524 -3.55879e-05 0.00145611
internal_weight=30860 24733 6127 4681 12868 11865 1446
internal_count=30860 24733 6127 4681 12868 11865 1446
is_linear=0
shrinkage=0.0241334


Tree=46
num_leaves=8
num_cat=0
split_feature=20 1 20 5 7 20 20
split_gain=8.78595 2.43735 1.40013 1.07809 0.99311 0.892061 0.880642
threshold=1.5000000000000002 0.13904686617325687 2.5000000000000004 21.622547044010485 9.0928847116997691 1.0000000180025095e-35 1.0000000180025095e-35
decision_type=2 2 2 2 2 2 2
left_child=1 5 3 -2 -4 -1 -3
right_child=2 6 4 -5 -6 -7 -8
leaf_value=-0.050143055437336423 0.04500296302529725 -0.018263098963393658 0.048120343641527702 0.20144680218286581 0.18093195897928374 -0.016164500646225637 0.01542201630870463
leaf_weight=8622 4579 6952 495 102 951 4246 4913
leaf_count=8622 4579 6952 495 102 951 4246 4913
internal_value=-8.44526e-05 -0.000287136 0.000733502 0.000530221 0.00138947 -0.000517149 -3.76214e-05
internal_weight=30860 24733 6127 4681 1446 12868 11865
internal_count=30860 24733 6127 4681 1446 12868 11865
is_linear=0
shrinkage=0.0241334


Tree=47
num_leaves=8
num_cat=0
split_feature=11 6 9 5 2 11 5
split_gain=1.81232 1.40778 0.965245 0.894747 0.776567 0.698875 0.499062
threshold=-0.60355339059327362 13.679570062917254 1.4532163873021651 13.045834465888825 13.500000000000002 -0.70710678118654735 22.678208502213383
decision_type=2 2 2 2 2 2 2
left_child=3 4 -3 5 -2 -1 -5
right_child=1 2 -4 6 -6 -7 -8
leaf_value=-0.0054800954519343475 -0.016282019609936305 0.20915365880790224 -0.049779023923638165 0.03681298985409559 0.023980499240752528 0.033086678851372994 -0.036775375349364828
leaf_weight=7282 10950 124 4055 3880 3016 1268 285
leaf_count=7282 10950 124 4055 3880 3016 1268 285
internal_value=-8.52345e-05 -0.000240037 -0.000628504 0.000135681 -0.000123703 -5.64412e-06 0.000425621
internal_weight=30860 18145 4179 12715 13966 8550 4165
internal_count=30860 18145 4179 12715 13966 8550 4165
is_linear=0
shrinkage=0.0241334


Tree=48
num_leaves=8
num_cat=0
split_feature=1 1 2 1 6 1 1
split_gain=5.75098 1.64003 1.32093 1.29972 1.2455 0.790811 0.401882
threshold=0.19257792584863301 0.24395243734571673 9.5000000000000018 0.077041261621181814 13.345646429537025 0.48152850004338993 0.02797984175810575
decision_type=2 2 2 2 2 2 2
left_child=3 2 -2 6 -5 -3 -1
right_child=1 5 -4 4 -6 -7 -8
leaf_value=-0.053458434779323889 0.067214806053184986 0.1171407079801416 0.0084123180214625958 -0.0027914609291941781 -0.031282285271357957 1.2182192351672421 -0.045022307582316151
leaf_weight=383 1686 1306 3186 13924 5379 120 4876
leaf_count=383 1686 1306 3186 13924 5379 120 4876
internal_value=-7.89788e-05 0.000571488 0.000360424 -0.000245809 -0.000154135 0.00129066 -0.000582057
internal_weight=30860 6298 4872 24562 19303 1426 5259
internal_count=30860 6298 4872 24562 19303 1426 5259
is_linear=0
shrinkage=0.0241334


Tree=49
num_leaves=8
num_cat=0
split_feature=20 20 20 5 5 7 7
split_gain=8.3857 2.04595 1.30976 1.08271 0.997592 0.919039 0.849762
threshold=1.5000000000000002 1.0000000180025095e-35 2.5000000000000004 21.622547044010485 11.879140310527378 9.0928847116997691 11.983821091466597
decision_type=2 2 2 2 2 2 2
left_child=1 4 3 -2 -1 -4 -3
right_child=2 6 5 -5 -6 -7 -8
leaf_value=-0.042204563437995953 0.044377196961106084 0.014179850067015233 0.046515963025085677 0.19720118896697925 -0.016015116519370164 0.17702575095413012 -0.017484435478602962
leaf_weight=9194 4579 5341 495 102 6380 951 3818
leaf_count=9194 4579 5341 495 102 6380 951 3818
internal_value=-7.74149e-05 -0.000275428 0.000721691 0.000525068 -0.000443731 0.00135615 1.07996e-05
internal_weight=30860 24733 6127 4681 15574 1446 9159
internal_count=30860 24733 6127 4681 15574 1446 9159
is_linear=0
shrinkage=0.0241334


Tree=50
num_leaves=7
num_cat=0
split_feature=20 1 1 1 20 20
split_gain=8.02628 2.3338 1.28138 0.894247 0.858459 0.829487
threshold=1.5000000000000002 0.13904686617325687 0.48152850004338993 0.094083760286094997 1.0000000180025095e-35 1.0000000180025095e-35
decision_type=2 2 2 2 2 2
left_child=1 4 3 -2 -1 -3
right_child=2 5 -4 -5 -6 -7
leaf_value=-0.047244723351742145 0.0045371046299135217 -0.017107338935415769 1.1845472571779612 0.080540369415055685 -0.01444004012549284 0.013831479012995564
leaf_weight=8622 1155 6952 120 4852 4246 4913
leaf_count=8622 1155 6952 120 4852 4246 4913
internal_value=-7.5851e-05 -0.000269574 0.000705942 0.000655785 -0.000494648 -2.54201e-05
internal_weight=30860 24733 6127 6007 12868 11865
internal_count=30860 24733 6127 6007 12868 11865
is_linear=0
shrinkage=0.0241334


Tree=51
num_leaves=8
num_cat=0
split_feature=1 1 2 1 5 1 1
split_gain=5.3371 1.42656 1.2761 1.14026 0.847007 0.684446 0.43723
threshold=0.19257792584863301 0.24395243734571673 9.5000000000000018 0.077041261621181814 13.258378382599542 0.48152850004338993 0.02797984175810575
decision_type=2 2 2 2 2 2 2
left_child=3 2 -2 6 -5 -3 -1
right_child=1 5 -4 4 -6 -7 -8
leaf_value=-0.051785677192373029 0.063734415654277912 0.1104854496983869 0.0063795315628951974 -0.018973628493508064 0.0066174351730096774 1.1559601276288785 -0.043271753680859157
leaf_weight=383 1686 1306 3186 14068 5235 120 4876
leaf_count=383 1686 1306 3186 14068 5235 120 4876
internal_value=-7.42871e-05 0.000552337 0.000355473 -0.000235002 -0.000149134 0.00122309 -0.00054995
internal_weight=30860 6298 4872 24562 19303 1426 5259
internal_count=30860 6298 4872 24562 19303 1426 5259
is_linear=0
shrinkage=0.0241334


Tree=52
num_leaves=8
num_cat=0
split_feature=20 1 20 5 9 20 20
split_gain=7.6277 2.1319 1.10448 1.09661 0.898336 0.871742 0.86058
threshold=1.5000000000000002 0.14621754212861018 2.5000000000000004 21.622547044010485 2.0249110892586684 1.0000000180025095e-35 1.0000000180025095e-35
decision_type=2 2 2 2 2 2 2
left_child=1 5 3 -2 -4 -1 -3
right_child=2 6 4 -5 -6 -7 -8
leaf_value=-0.045809928315985314 0.041079031641755928 -0.016443465352929256 0.35689283481711909 0.1900879705411215 0.11838243288380955 -0.017335708689166639 0.015510569651780557
leaf_weight=8622 4579 6952 171 102 1275 4536 4623
leaf_count=8622 4579 6952 171 102 1275 4536 4623
internal_value=-7.19412e-05 -0.000260793 0.000690193 0.00050961 0.00127284 -0.000470912 -2.18878e-05
internal_weight=30860 24733 6127 4681 1446 13158 11575
internal_count=30860 24733 6127 4681 1446 13158 11575
is_linear=0
shrinkage=0.0241334


Tree=53
num_leaves=8
num_cat=0
split_feature=20 1 7 20 20 20 6
split_gain=7.2382 2.04105 1.2608 0.995247 0.836684 0.818817 0.656355
threshold=1.5000000000000002 0.14621754212861018 9.82004747001052 2.5000000000000004 1.0000000180025095e-35 1.0000000180025095e-35 8.0642766520457076
decision_type=2 2 2 2 2 2 2
left_child=1 4 6 -4 -1 -3 -2
right_child=2 5 3 -5 -6 -7 -8
leaf_value=-0.044704379890232189 -0.036496330558626243 -0.016046628948613986 0.061700916108747672 0.18028087091566158 -0.016917339437016218 0.015136247174286601 0.04088996515131077
leaf_weight=8622 508 6952 2678 820 4536 4623 2121
leaf_count=8622 508 6952 2678 820 4536 4623 2121
internal_value=-7.5851e-05 -0.000259818 0.00066657 0.000966559 -0.00046541 -2.60568e-05 0.000266868
internal_weight=30860 24733 6127 3498 13158 11575 2629
internal_count=30860 24733 6127 3498 13158 11575 2629
is_linear=0
shrinkage=0.0241334


Tree=54
num_leaves=7
num_cat=0
split_feature=20 1 1 11 1 6
split_gain=6.93543 1.98266 1.12931 0.919508 0.897002 0.840182
threshold=1.5000000000000002 0.14621754212861018 0.48152850004338993 -0.5 0.079475343762596018 13.425302612660916
decision_type=2 2 2 2 2 2
left_child=1 3 4 -1 -2 -3
right_child=2 5 -4 -5 -6 -7
leaf_value=-0.011579804662989872 -0.0027544832658044378 0.0065698511395283227 1.1208551470319534 -0.042742493011001345 0.067895591321291679 -0.024699678701831554
leaf_weight=4072 965 8349 120 9086 5042 3226
leaf_count=4072 965 8349 120 9086 5042 3226
internal_value=-6.80314e-05 -0.00024811 0.000658695 -0.00045074 0.000611611 -1.77188e-05
internal_weight=30860 24733 6127 13158 6007 11575
internal_count=30860 24733 6127 13158 6007 11575
is_linear=0
shrinkage=0.0241334


Tree=55
num_leaves=8
num_cat=0
split_feature=20 1 7 20 20 20 1
split_gain=6.65269 1.86239 1.17126 0.930794 0.791616 0.755528 0.549441
threshold=1.5000000000000002 0.14621754212861018 9.82004747001052 2.5000000000000004 1.0000000180025095e-35 1.0000000180025095e-35 0.094083760286094997
decision_type=2 2 2 2 2 2 2
left_child=1 5 6 -4 -3 -1 -2
right_child=2 4 3 -5 -6 -7 -8
leaf_value=-0.042641415891830001 -0.028030144902366438 -0.015629759809788285 0.058573314297539723 0.17582608985366641 0.014753661761982829 -0.016119744594526517 0.037489686042258538
leaf_weight=8622 546 6952 2678 820 4623 4536 2083
leaf_count=8622 546 6952 2678 820 4623 4536 2083
internal_value=-6.88133e-05 -0.000245183 0.000642946 0.000932089 -2.18878e-05 -0.000441571 0.000257698
internal_weight=30860 24733 6127 3498 11575 13158 2629
internal_count=30860 24733 6127 3498 11575 13158 2629
is_linear=0
shrinkage=0.0241334


Tree=56
num_leaves=8
num_cat=0
split_feature=20 1 7 20 20 20 5
split_gain=6.20479 1.78845 1.10821 1.0048 0.763311 0.719137 0.534847
threshold=1.5000000000000002 0.14621754212861018 9.82004747001052 2.5000000000000004 1.0000000180025095e-35 1.0000000180025095e-35 8.0205947924364267
decision_type=2 2 2 2 2 2 2
left_child=1 4 6 -4 -1 -3 -2
right_child=2 5 3 -5 -6 -7 -8
leaf_value=-0.041612334381683977 -0.031391234263141748 -0.015252560870872246 0.057159742222811311 0.17158281194449287 -0.015730720666414368 0.014397606030514629 0.038379353352106321
leaf_weight=8622 556 6952 2678 820 4536 4623 2073
leaf_count=8622 556 6952 2678 820 4536 4623 2073
internal_value=-6.41215e-05 -0.000234451 0.00062326 0.000904512 -0.000426901 -1.56343e-05 0.000248527
internal_weight=30860 24733 6127 3498 13158 11575 2629
internal_count=30860 24733 6127 3498 13158 11575 2629
is_linear=0
shrinkage=0.0241334


Tree=57
num_leaves=8
num_cat=0
split_feature=20 20 5 12 20 5 5
split_gain=5.89568 1.57588 0.908829 0.882211 1.08206 0.87946 0.553773
threshold=1.5000000000000002 1.0000000180025095e-35 11.879140310527378 0.60355339059327384 2.5000000000000004 15.807736222045992 12.955166918538222
decision_type=2 2 2 2 2 2 2
left_child=1 2 -1 4 -2 -5 -3
right_child=3 6 -4 5 -6 -7 -8
leaf_value=-0.036907301547825185 0.04760813072769518 -0.006804992586572951 -0.011455814853053831 -0.039121175127609993 0.14384916498716513 0.12882073474024469 0.020107399607456267
leaf_weight=9194 4164 6282 6380 650 1183 130 2877
leaf_count=9194 4164 6282 6380 650 1183 130 2877
internal_value=-6.64674e-05 -0.000232499 -0.000380209 0.000603574 0.000714136 -0.000154196 1.87022e-05
internal_weight=30860 24733 15574 6127 5347 780 9159
internal_count=30860 24733 15574 6127 5347 780 9159
is_linear=0
shrinkage=0.0241334


Tree=58
num_leaves=7
num_cat=0
split_feature=11 9 3 5 8 5
split_gain=1.6077 0.672463 0.694535 0.641545 0.612204 0.477156
threshold=-0.60355339059327362 0.90437482518622991 3.3750000000000004 13.045834465888825 9.5853780057315117 17.83420234028382
decision_type=2 2 2 2 2 2
left_child=3 -2 -3 4 -1 -5
right_child=1 2 -4 5 -6 -7
leaf_value=0.03277229731144795 0.10416169782500612 -0.023596126502097723 0.0045210982337863491 0.038271494348487013 -0.0064522432954344303 -0.0037192536726052714
leaf_weight=1673 105 14200 3840 3162 6877 1003
leaf_count=1673 105 14200 3840 3162 6877 1003
internal_value=-7.42871e-05 -0.000220089 -0.000231402 0.000133783 1.41083e-05 0.000379295
internal_weight=30860 18145 18040 12715 8550 4165
internal_count=30860 18145 18040 12715 8550 4165
is_linear=0
shrinkage=0.0241334


Tree=59
num_leaves=8
num_cat=0
split_feature=20 20 9 6 5 6 5
split_gain=5.30209 1.62776 0.902996 1.67299 0.834082 0.741417 0.492426
threshold=1.5000000000000002 1.0000000180025095e-35 1.5132250638452682 10.31899455226271 11.879140310527378 12.173257011496389 12.955166918538222
decision_type=2 2 2 2 2 2 2
left_child=1 4 3 -2 -1 -4 -3
right_child=2 6 5 -5 -6 -7 -8
leaf_value=-0.035547980595725191 -0.048557763737194892 -0.0060713108152813215 0.07166132619996407 0.37915732512679406 -0.011014864810504519 0.011668031643724028 0.018698519552787438
leaf_weight=9194 112 6282 3903 186 6380 1926 2877
leaf_count=9194 112 6282 3903 186 6380 1926 2877
internal_value=-6.33396e-05 -0.000220791 0.000572077 0.00186285 -0.000370912 0.000505299 3.45074e-05
internal_weight=30860 24733 6127 298 15574 5829 9159
internal_count=30860 24733 6127 298 15574 5829 9159
is_linear=0
shrinkage=0.0241334


Tree=60
num_leaves=8
num_cat=0
split_feature=20 1 1 20 1 20 9
split_gain=4.99084 1.66946 1.21496 1.0588 0.827683 0.676474 0.523873
threshold=1.5000000000000002 0.14621754212861018 0.094083760286094997 2.5000000000000004 0.3150822511883552 1.0000000180025095e-35 4.0967853264570415
decision_type=2 2 2 2 2 2 2
left_child=1 5 6 -4 -3 -1 -2
right_child=2 4 3 -5 -6 -7 -8
leaf_value=-0.038833152485410791 -0.061228728454417805 -0.0039845687838097306 0.048044643229210968 0.1554654676512533 0.12503251095855999 -0.01507555446802469 0.031547714734042144
leaf_weight=8622 581 11350 3920 1052 225 4536 574
leaf_count=8622 581 11350 3920 1052 225 4536 574
internal_value=-6.80314e-05 -0.000220791 0.000548453 0.000712179 -9.38081e-06 -0.00040673 -0.000156364
internal_weight=30860 24733 6127 4972 11575 13158 1155
internal_count=30860 24733 6127 4972 11575 13158 1155
is_linear=0
shrinkage=0.0241334


Tree=61
num_leaves=8
num_cat=0
split_feature=20 20 12 11 5 5 11
split_gain=4.68945 1.48068 0.852285 0.877342 0.779442 0.607389 0.455278
threshold=1.5000000000000002 1.0000000180025095e-35 0.60355339059327384 0.91597561503675362 11.879140310527378 15.807736222045992 -0.5
decision_type=2 2 2 2 2 2 2
left_child=1 4 3 -2 -1 -4 -3
right_child=2 6 5 -5 -6 -7 -8
leaf_value=-0.03485388453729852 0.074048500568923412 0.018152313833899078 -0.038571432098888546 -0.019241058700993408 -0.01027764440310714 0.12259153390805964 -0.0085095769816367836
leaf_weight=9194 4731 3976 650 616 6380 130 5183
leaf_count=9194 4731 3976 650 616 6380 130 5183
internal_value=-6.88133e-05 -0.000216889 0.000528767 0.000637444 -0.000360067 -0.000215874 2.66048e-05
internal_weight=30860 24733 6127 5347 15574 780 9159
internal_count=30860 24733 6127 5347 15574 780 9159
is_linear=0
shrinkage=0.0241334


Tree=62
num_leaves=8
num_cat=0
split_feature=20 20 7 12 7 5 5
split_gain=4.48187 1.45353 1.02415 0.82335 0.808033 0.761189 0.531682
threshold=1.5000000000000002 1.0000000180025095e-35 9.82004747001052 -0.12940952255126037 11.983821091466597 11.879140310527378 8.2363604262537589
decision_type=2 2 2 2 2 2 2
left_child=1 5 6 -4 -3 -1 -2
right_child=2 4 3 -5 -6 -7 -8
leaf_value=-0.034012742483641452 -0.028641869195056398 0.012291321841957449 0.097807711179753828 0.031432072791724761 -0.017367232962509218 -0.010029610101199262 0.031792143666764007
leaf_weight=9194 639 5341 2155 1343 3818 6380 1990
leaf_count=9194 639 5341 2155 1343 3818 6380 1990
internal_value=-6.72494e-05 -0.00021201 0.000516956 0.000787311 2.9239e-05 -0.00035387 0.000156819
internal_weight=30860 24733 6127 3498 9159 15574 2629
internal_count=30860 24733 6127 3498 9159 15574 2629
is_linear=0
shrinkage=0.0241334


Tree=63
num_leaves=8
num_cat=0
split_feature=20 1 1 20 11 5 2
split_gain=4.27014 1.5599 1.10758 0.983193 0.864562 0.683462 0.131157
threshold=1.0000000180025095e-35 0.14377721433900792 0.3150822511883552 2.5000000000000004 0.37940952255126054 15.02705824877402 15.500000000000002
decision_type=2 2 2 2 2 2 2
left_child=2 4 5 -3 -2 -1 -4
right_child=1 3 6 -5 -6 -7 -8
leaf_value=-0.03111760229843687 0.010579943208989378 0.030138315243266777 0.06815519798814057 0.13145012008211848 -0.035996712051545574 -0.0020573431724896576 0.17154842430115552
leaf_weight=12721 4459 7746 140 904 2177 2628 85
leaf_count=12721 4459 7746 140 904 2177 2628 85
internal_value=-6.49035e-05 0.000221624 -0.000346123 0.000435109 -5.67118e-05 -0.000370847 0.00132567
internal_weight=30860 15286 15574 8650 6636 15349 225
internal_count=30860 15286 15574 8650 6636 15349 225
is_linear=0
shrinkage=0.0241334


Tree=64
num_leaves=7
num_cat=0
split_feature=11 5 9 2 2 5
split_gain=1.42184 0.661534 0.66033 0.613188 0.591528 0.477156
threshold=-0.60355339059327362 13.045834465888825 0.90437482518622991 13.500000000000002 11.500000000000002 17.83420234028382
decision_type=2 2 2 2 2 2
left_child=1 4 -2 -4 -1 -3
right_child=2 5 3 -5 -6 -7
leaf_value=0.012011471786814059 0.1042382289970117 0.038269332868480756 -0.021450767965644255 0.0033272618895881807 -0.017720587602812438 -0.0083785107675120648
leaf_weight=4479 105 3162 14200 3840 4071 1003
leaf_count=4479 105 3162 14200 3840 4071 1003
internal_value=-6.56855e-05 0.000129988 -0.000202801 -0.000214014 8.46474e-06 0.000379295
internal_weight=30860 12715 18145 18040 8550 4165
internal_count=30860 12715 18145 18040 8550 4165
is_linear=0
shrinkage=0.0241334


Tree=65
num_leaves=8
num_cat=0
split_feature=20 1 1 20 11 1 18
split_gain=4.15061 1.42168 1.05759 0.826469 0.770468 0.705916 0.403469
threshold=1.5000000000000002 0.14621754212861018 0.094083760286094997 2.5000000000000004 -0.5 0.3150822511883552 420.00000000000006
decision_type=2 2 2 2 2 2 2
left_child=1 4 6 -4 -1 -3 -2
right_child=2 5 3 -5 -6 -7 -8
leaf_value=-0.0070153401330529013 -0.02870406020300105 -0.0028979714115533128 0.042665133625401926 0.14774279094398771 -0.035931747878456509 0.12131260374913419 0.045082387836469839
leaf_weight=4072 772 11350 3920 1052 9086 225 383
leaf_count=4072 772 11350 3920 1052 9086 225 383
internal_value=-6.09937e-05 -0.000200303 0.000501207 0.000653963 -0.000371888 -5.21182e-06 -0.000156364
internal_weight=30860 24733 6127 4972 13158 11575 1155
internal_count=30860 24733 6127 4972 13158 11575 1155
is_linear=0
shrinkage=0.0241334


Tree=66
num_leaves=8
num_cat=0
split_feature=20 1 1 20 11 1 9
split_gain=4.02378 1.37934 1.03243 0.853496 0.740045 0.705916 0.612332
threshold=1.5000000000000002 0.14621754212861018 0.094083760286094997 2.5000000000000004 -0.5 0.3150822511883552 4.0967853264570415
decision_type=2 2 2 2 2 2 2
left_child=1 4 6 -4 -1 -3 -2
right_child=2 5 3 -5 -6 -7 -8
leaf_value=-0.0068460362610468133 -0.062143584441818403 -0.0028280335651148618 0.041635479726169572 0.14417725797004724 -0.035064593338777289 0.11838492053658335 0.026929788776536213
leaf_weight=4072 581 11350 3920 1052 9086 225 574
leaf_count=4072 581 11350 3920 1052 9086 225 574
internal_value=-6.02117e-05 -0.000197376 0.000493332 0.00064426 -0.000366387 -5.21182e-06 -0.000156364
internal_weight=30860 24733 6127 4972 13158 11575 1155
internal_count=30860 24733 6127 4972 13158 11575 1155
is_linear=0
shrinkage=0.0241334


Tree=67
num_leaves=8
num_cat=0
split_feature=20 20 9 11 5 9 11
split_gain=3.88104 1.38197 0.828084 0.748097 0.734081 1.07266 0.492655
threshold=1.0000000180025095e-35 2.5000000000000004 2.0249110892586684 0.37940952255126054 11.879140310527378 1.6542320485127273 -0.5
decision_type=2 2 2 2 2 2 2
left_child=4 3 -3 -2 6 -6 -1
right_child=1 2 -4 -5 5 -7 -8
leaf_value=-0.017917745264716504 0.023351073287620604 0.3145927817708058 0.087212302092193189 -0.0069658997750103487 0.083104544306161682 -0.013632861283648724 -0.039853707922345688
leaf_weight=3680 8927 171 1275 4913 115 6265 5514
leaf_count=3680 8927 171 1275 4913 115 6265 5514
internal_value=-5.94298e-05 0.000213732 0.000922979 0.000139473 -0.000327531 -0.00012856 -0.000465529
internal_weight=30860 15286 1446 13840 15574 6380 9194
internal_count=30860 15286 1446 13840 15574 6380 9194
is_linear=0
shrinkage=0.0241334


Tree=68
num_leaves=8
num_cat=0
split_feature=20 20 7 11 5 7 2
split_gain=3.74682 1.28465 0.761002 0.715736 0.695247 0.769946 0.750512
threshold=1.0000000180025095e-35 2.5000000000000004 9.0928847116997691 0.37940952255126054 11.879140310527378 10.663609421851103 6.5000000000000009
decision_type=2 2 2 2 2 2 2
left_child=4 3 -3 -2 5 -1 -6
right_child=1 2 -4 -5 6 -7 -8
leaf_value=-0.045285318131513097 0.022787532953422642 0.012449468851360815 0.14022083966921686 -0.0067977890659715384 -0.039071085003780155 -0.018003166740955829 0.0066618038721725928
leaf_weight=4338 8927 495 951 4913 2375 4856 4005
leaf_count=4338 8927 495 951 4913 2375 4856 4005
internal_value=-6.25576e-05 0.000205839 0.000889658 0.000134243 -0.000325982 -0.000460281 -0.000132341
internal_weight=30860 15286 1446 13840 15574 9194 6380
internal_count=30860 15286 1446 13840 15574 9194 6380
is_linear=0
shrinkage=0.0241334


Tree=69
num_leaves=8
num_cat=0
split_feature=20 20 9 6 16 11 11
split_gain=3.55131 1.30849 0.864022 0.692137 0.832675 0.681133 0.567757
threshold=1.0000000180025095e-35 2.5000000000000004 2.0249110892586684 13.345646429537025 1.0000000180025095e-35 -0.60355339059327362 0.78656609248549325
decision_type=2 2 2 2 2 2 2
left_child=3 5 -3 4 -1 -2 -5
right_child=1 2 -4 6 -6 -7 -8
leaf_value=-0.029896181361523579 0.027808403534705834 0.30361660413540287 0.08434128465016022 -0.029865893906543844 0.00079838531362200519 -0.00059529652106008173 -0.058713888540885578
leaf_weight=6432 5908 171 1275 3447 4828 7932 867
leaf_count=6432 5908 171 1275 3447 4828 7932 867
internal_value=-6.17757e-05 0.000199525 0.000889658 -0.000318235 -0.000218566 0.000127269 -0.000578098
internal_weight=30860 15286 1446 15574 11260 13840 4314
internal_count=30860 15286 1446 15574 11260 13840 4314
is_linear=0
shrinkage=0.0241334


Tree=70
num_leaves=8
num_cat=0
split_feature=20 1 7 5 1 1 5
split_gain=3.45101 1.16434 1.05403 0.769493 0.705916 0.642349 0.480947
threshold=1.5000000000000002 0.14621754212861018 9.82004747001052 19.590910678494044 0.3150822511883552 0.094083760286094997 13.045834465888825
decision_type=2 2 2 2 2 2 2
left_child=1 6 5 -4 -3 -2 -1
right_child=2 4 3 -5 -6 -7 -8
leaf_value=-0.030328734249159318 -0.034000489635509307 -0.0022610067538151213 0.066447485148270716 0.16736144571430434 0.11690490644470193 0.025428977866064715 -0.0086917685632473037
leaf_weight=9605 546 11350 3331 167 225 2083 3553
leaf_count=9605 546 11350 3331 167 225 2083 3553
internal_value=-5.4738e-05 -0.000181765 0.000457897 0.000732158 -5.21182e-06 9.26241e-05 -0.000337047
internal_weight=30860 24733 6127 3498 11575 2629 13158
internal_count=30860 24733 6127 3498 11575 2629 13158
is_linear=0
shrinkage=0.0241334


Tree=71
num_leaves=8
num_cat=0
split_feature=1 6 1 9 9 6 9
split_gain=2.84859 1.27614 1.41231 0.694426 0.858762 0.659344 0.605409
threshold=0.23343264650972592 13.345646429537025 0.079475343762596018 6.0331848431806643 1.7664608854876171 10.529581916155033 8.736502335825044
decision_type=2 2 2 2 2 2 2
left_child=1 2 -1 4 -2 -5 -3
right_child=3 6 -4 5 -6 -7 -8
leaf_value=-0.031712007061480203 0.32956398186695995 -0.022920973316701777 0.0047871860804238262 0.29615699193758382 0.034991590824285629 0.093418747502889352 -0.064916527925995005
leaf_weight=4046 191 7230 16883 93 1643 292 482
leaf_count=4046 191 7230 16883 93 1643 292 482
internal_value=-4.92642e-05 -0.000113828 -1.60268e-05 0.000783241 0.000586068 0.00171243 -0.000379149
internal_weight=30860 28641 20929 2219 1834 385 7712
internal_count=30860 28641 20929 2219 1834 385 7712
is_linear=0
shrinkage=0.0241334


Tree=72
num_leaves=8
num_cat=0
split_feature=20 6 11 1 7 7 6
split_gain=3.33619 1.07532 1.2742 0.985335 0.95069 0.685132 0.557235
threshold=1.5000000000000002 13.425302612660916 0.25881904510252091 0.21849367963550087 9.82004747001052 9.9987420120337323 8.0642766520457076
decision_type=2 2 2 2 2 2 2
left_child=1 3 -3 -1 6 -6 -2
right_child=4 2 -4 -5 5 -7 -8
leaf_value=-0.0077609915106046454 -0.047833558866843789 -0.012745102674360458 -0.04611238732080071 0.13569056468803298 0.14215184850071763 0.063254243111675296 0.023760429617834696
leaf_weight=17961 508 3924 2597 251 116 3382 2121
leaf_count=17961 508 3924 2597 251 116 3382 2121
internal_value=-4.61364e-05 -0.000171033 -0.000436902 -7.57877e-05 0.000457897 0.00071837 0.000110966
internal_weight=30860 24733 6521 18212 6127 3498 2629
internal_count=30860 24733 6521 18212 6127 3498 2629
is_linear=0
shrinkage=0.0241334


Tree=73
num_leaves=8
num_cat=0
split_feature=6 11 8 9 12 18 13
split_gain=1.13726 1.31072 0.813758 0.602554 0.56337 0.545092 0.407261
threshold=13.21332153746239 0.25881904510252091 9.5853780057315117 1.4532163873021651 0.25881904510252057 300.00000000000006 1.0000000180025095e-35
decision_type=2 2 2 2 2 2 2
left_child=4 2 -2 -3 6 -6 -1
right_child=1 3 -4 -5 5 -7 -8
leaf_value=0.011974146834342418 0.036316225257190173 0.35043261318304292 -0.015315135259934201 -0.042279960813283189 -0.038128192000992579 0.00025506361296078422 -0.0018616419463258762
leaf_weight=9628 929 110 4327 3123 1923 2483 8337
leaf_count=9628 929 110 4327 3123 1923 2483 8337
internal_value=-4.61364e-05 -0.000283921 -4.86477e-05 -0.000666071 4.41165e-05 -0.000200357 0.000104095
internal_weight=30860 8489 5256 3233 22371 4406 17965
internal_count=30860 8489 5256 3233 22371 4406 17965
is_linear=0
shrinkage=0.0241334


Tree=74
num_leaves=8
num_cat=0
split_feature=20 1 7 5 1 5 9
split_gain=3.13096 1.05643 0.915024 0.803549 0.699299 0.63849 0.626087
threshold=1.5000000000000002 0.14621754212861018 9.82004747001052 19.590910678494044 0.3150822511883552 8.2363604262537589 1.0246637674243069
decision_type=2 2 2 2 2 2 2
left_child=1 6 5 -4 -3 -2 -1
right_child=2 4 3 -5 -6 -7 -8
leaf_value=0.075368838219073156 -0.033090899981713773 -0.0019334413349496782 0.062794242591243249 0.15729533845722418 0.11000938619608712 0.026167847922268003 -0.025271862114051288
leaf_weight=119 639 11350 3331 167 225 1990 13039
leaf_count=119 639 11350 3331 167 225 1990 13039
internal_value=-4.61364e-05 -0.00016713 0.000442148 0.000697688 1.04167e-06 0.000101795 -0.000315042
internal_weight=30860 24733 6127 3498 11575 2629 13158
internal_count=30860 24733 6127 3498 11575 2629 13158
is_linear=0
shrinkage=0.0241334


Tree=75
num_leaves=8
num_cat=0
split_feature=20 20 1 1 9 5 7
split_gain=3.07856 1.19661 0.930591 0.89805 0.753417 0.661451 0.0657875
threshold=1.0000000180025095e-35 2.5000000000000004 0.079475343762596018 0.3150822511883552 2.0249110892586684 11.879140310527378 10.027775030461909
decision_type=2 2 2 2 2 2 2
left_child=3 2 -2 5 -3 -1 -5
right_child=1 4 -4 6 -6 -7 -8
leaf_value=-0.029431603518054277 -0.025556249110174286 0.2912392487652356 0.014931149084626843 0.27684240971842278 0.079778304167013425 -0.010175011870821767 0.054028841755966471
leaf_weight=9051 2045 171 11795 99 1275 6298 126
leaf_count=9051 2045 171 11795 99 1275 6298 126
internal_value=-4.69184e-05 0.000196368 0.000127269 -0.000285699 0.000856337 -0.000307965 0.00121961
internal_weight=30860 15286 13840 15574 1446 15349 225
internal_count=30860 15286 13840 15574 1446 15349 225
is_linear=0
shrinkage=0.0241334


Tree=76
num_leaves=8
num_cat=0
split_feature=20 20 7 5 7 5 2
split_gain=2.95987 0.982637 0.662909 0.654518 0.615439 0.504927 0.486193
threshold=1.0000000180025095e-35 2.5000000000000004 9.0928847116997691 11.754111168273317 10.663609421851103 12.546960543459903 6.5000000000000009
decision_type=2 2 2 2 2 2 2
left_child=3 5 -3 4 -1 -2 -5
right_child=1 2 -4 6 -6 -7 -8
leaf_value=-0.041050774042546957 0.00095583401186189322 0.0060986933583717911 0.11988161688487498 -0.033685708731615485 -0.016920000909005185 0.022846788389640604 0.0054029277161879328
leaf_weight=4193 9212 495 951 2423 4759 4628 4199
leaf_count=4193 9212 495 951 2423 4759 4628 4199
internal_value=-4.69184e-05 0.000191632 0.000789696 -0.000281051 -0.000415584 0.000129012 -9.90906e-05
internal_weight=30860 15286 1446 15574 8952 13840 6622
internal_count=30860 15286 1446 15574 8952 13840 6622
is_linear=0
shrinkage=0.0241334


Tree=77
num_leaves=8
num_cat=0
split_feature=1 6 11 1 1 8 8
split_gain=2.2849 1.16183 1.19235 1.00103 0.803578 0.794161 0.293875
threshold=0.19257792584863301 13.21332153746239 0.25881904510252091 0.079475343762596018 0.3150822511883552 10.261445986574648 10.572975161675624
decision_type=2 2 2 2 2 2 2
left_child=1 3 -3 -1 5 -2 -6
right_child=4 2 -4 -5 6 -7 -8
leaf_value=-0.028552376878120012 0.049411732110116638 -0.012119179229530441 -0.041704858771640922 0.0026969078272193621 0.053009063827132351 0.010930158936880067 0.35829321980130729
leaf_weight=3993 1631 4210 2723 13636 161 4322 184
leaf_count=3993 1631 4210 2723 13636 161 4322 184
internal_value=-4.53544e-05 -0.000150511 -0.000415124 -4.64016e-05 0.000364649 0.00029865 0.00149289
internal_weight=30860 24562 6933 17629 6298 5953 345
internal_count=30860 24562 6933 17629 6298 5953 345
is_linear=0
shrinkage=0.0241334


Tree=78
num_leaves=8
num_cat=0
split_feature=20 9 6 5 9 17 11
split_gain=2.82489 0.945075 0.693301 0.766003 0.652743 0.606217 0.603439
threshold=1.0000000180025095e-35 1.5132250638452682 13.345646429537025 11.754111168273317 2.0249110892586684 13.316727900814451 0.37940952255126054
decision_type=2 2 2 2 2 2 2
left_child=2 5 3 -1 -4 -2 -3
right_child=1 6 4 -5 -6 -7 -8
leaf_value=-0.025827070067983026 0.1995602314702101 0.023824631204362096 0.0069784623597551627 0.0036834895458514043 -0.037543612769062935 0.040483447040835598 -0.0031926292703361786
leaf_weight=6560 175 9503 447 4700 3867 268 5340
leaf_count=6560 175 9503 447 4700 3867 268 5340
internal_value=-4.45725e-05 0.000188475 -0.000273304 -0.000173567 -0.000533371 0.00128369 0.000155572
internal_weight=30860 15286 15574 11260 4314 443 14843
internal_count=30860 15286 15574 11260 4314 443 14843
is_linear=0
shrinkage=0.0241334


Tree=79
num_leaves=8
num_cat=0
split_feature=20 20 6 5 7 11 11
split_gain=2.6361 0.92084 0.658899 0.752108 0.602689 0.591207 0.561072
threshold=1.0000000180025095e-35 2.5000000000000004 13.345646429537025 11.754111168273317 9.0928847116997691 0.25881904510252091 -0.60355339059327362
decision_type=2 2 2 2 2 2 2
left_child=2 6 3 -1 -3 -4 -2
right_child=1 4 5 -5 -6 -7 -8
leaf_value=-0.025203775561636676 0.024289429370490653 0.0051127607007611436 -0.015685627620900523 0.003594594491473614 0.11680175705768385 -0.042111571225264037 -0.00093025622138963825
leaf_weight=6560 5908 495 2515 4700 951 1799 7932
leaf_count=6560 5908 495 2515 4700 951 1799 7932
internal_value=-4.77003e-05 0.000177426 -0.000268656 -0.000171424 0.000756376 -0.000522189 0.000116809
internal_weight=30860 15286 15574 11260 1446 4314 13840
internal_count=30860 15286 15574 11260 1446 4314 13840
is_linear=0
shrinkage=0.0241334


Tree=80
num_leaves=8
num_cat=0
split_feature=20 6 11 1 6 1 9
split_gain=2.49999 1.00897 1.15113 0.973456 0.846692 0.803398 0.522703
threshold=1.5000000000000002 13.425302612660916 0.25881904510252091 0.094083760286094997 20.344595197118196 0.14621754212861018 4.0967853264570415
decision_type=2 2 2 2 2 2 2
left_child=1 5 -3 6 -5 -1 -2
right_child=3 2 -4 4 -6 -7 -8
leaf_value=-0.017451071723114928 -0.062747396600016894 -0.010618899019336922 -0.041643573021040409 0.047743277970270233 0.14911642521432825 0.0067668711161249957 0.020902533917954581
leaf_weight=9863 581 3924 2597 4863 109 8349 574
leaf_count=9863 581 3924 2597 4863 109 8349 574
internal_value=-4.53544e-05 -0.000153471 -0.000411006 0.000390965 0.00053753 -6.12133e-05 -0.000239759
internal_weight=30860 24733 6521 6127 4972 18212 1155
internal_count=30860 24733 6521 6127 4972 18212 1155
is_linear=0
shrinkage=0.0241334


Tree=81
num_leaves=8
num_cat=0
split_feature=20 6 11 9 6 5 6
split_gain=2.55469 0.966734 1.08677 0.737961 1.26012 0.694295 0.589692
threshold=1.5000000000000002 13.425302612660916 0.25881904510252091 1.7121345617479422 10.31899455226271 11.793916924358106 12.192531659440302
decision_type=2 2 2 2 2 2 2
left_child=1 5 -3 4 -2 -1 -5
right_child=3 2 -4 6 -6 -7 -8
leaf_value=-0.014927387593658588 -0.067726536191021772 -0.010362629089965218 -0.040638572832465976 0.049373770554088682 0.27042579284604906 0.00624755126238709 -0.0042385272709585271
leaf_weight=10695 126 3924 2597 3900 235 7517 1866
leaf_count=10695 126 3924 2597 3900 235 7517 1866
internal_value=-4.22266e-05 -0.00015152 -0.000403607 0.000398839 0.00145374 -6.12133e-05 0.000332178
internal_weight=30860 24733 6521 6127 361 18212 5766
internal_count=30860 24733 6521 6127 361 18212 5766
is_linear=0
shrinkage=0.0241334


Tree=82
num_leaves=8
num_cat=0
split_feature=20 1 1 6 1 9 6
split_gain=2.36694 0.997824 0.711096 0.568405 0.992323 0.587558 0.541238
threshold=1.0000000180025095e-35 0.14377721433900792 0.48152850004338993 13.345646429537025 0.095041402383596624 2.0249110892586684 13.21332153746239
decision_type=2 2 2 2 2 2 2
left_child=3 6 -3 4 -1 -5 -2
right_child=1 2 -4 5 -6 -7 -8
leaf_value=-0.037709729296715219 0.0049519503662539995 0.026205906465972557 1.0319454382353013 0.0086973555209776034 -0.0029178326873785499 -0.034382762048882569 -0.023029536979433624
leaf_weight=3372 4765 8530 120 447 7888 3867 1871
leaf_count=3372 4765 8530 120 447 7888 3867 1871
internal_value=-4.37905e-05 0.000169533 0.000340277 -0.000253163 -0.000162853 -0.000488644 -5.30765e-05
internal_weight=30860 15286 8650 15574 11260 4314 6636
internal_count=30860 15286 8650 15574 11260 4314 6636
is_linear=0
shrinkage=0.0241334


Tree=83
num_leaves=8
num_cat=0
split_feature=1 6 11 1 1 3 14
split_gain=2.01951 0.964972 0.964752 0.888256 0.718455 0.943368 0.454269
threshold=0.19257792584863301 13.21332153746239 0.25881904510252091 0.079475343762596018 0.24395243734571673 2.3750000000000004 -0.22252093395631442
decision_type=2 2 2 2 2 2 2
left_child=1 3 -3 -1 5 -2 -6
right_child=4 2 -4 -5 6 -7 -8
leaf_value=-0.026260609461628545 0.046124918745721832 -0.010191929967148895 -0.038128751339195591 0.0027266100376067701 0.023852091476226672 -0.0038236813439924307 0.13064956154417176
leaf_weight=3993 1686 4210 2723 13636 423 3186 1003
leaf_count=3993 1686 4210 2723 13636 423 3186 1003
internal_value=-4.37905e-05 -0.000142652 -0.000383807 -4.77703e-05 0.000341667 0.000201996 0.000817646
internal_weight=30860 24562 6933 17629 6298 4872 1426
internal_count=30860 24562 6933 17629 6298 4872 1426
is_linear=0
shrinkage=0.0241334


Tree=84
num_leaves=8
num_cat=0
split_feature=20 20 2 11 6 7 7
split_gain=2.28066 0.846538 0.618108 0.521608 0.501558 0.727094 0.581205
threshold=1.0000000180025095e-35 2.5000000000000004 4.5000000000000009 0.37940952255126054 12.619756179958831 10.742760936130137 18.841755853678766
decision_type=2 2 2 2 2 2 2
left_child=4 3 -3 -2 5 -1 -6
right_child=1 2 -4 -5 6 -7 -8
leaf_value=-0.023119291433122933 0.018472235839861149 -0.0019722614076681049 0.13814418071185691 -0.0061169367850753805 -0.024669057921436685 0.0024744566630638056 -0.092002897460484942
leaf_weight=4897 8927 453 993 4913 4868 5455 354
leaf_count=4897 8927 453 993 4913 4868 5455 354
internal_value=-4.14446e-05 0.000167955 0.000723055 0.000109835 -0.000246965 -0.000149632 -0.00043975
internal_weight=30860 15286 1446 13840 15574 10352 5222
internal_count=30860 15286 1446 13840 15574 10352 5222
is_linear=0
shrinkage=0.0241334


Tree=85
num_leaves=8
num_cat=0
split_feature=20 1 1 11 1 7 2
split_gain=2.06126 0.865338 0.735292 0.557835 0.54514 0.604545 0.0718426
threshold=1.0000000180025095e-35 0.14377721433900792 0.48152850004338993 0.37940952255126054 0.21849367963550087 11.481798175420435 12.500000000000002
decision_type=2 2 2 2 2 2 2
left_child=4 3 -3 -2 5 -1 -6
right_child=1 2 -4 -5 6 -7 -8
leaf_value=-0.027700285912109369 0.0062107390057878405 0.025118395563074086 1.0005542048024871 -0.031401290318491627 0.011330890926090065 -0.0086131767741132129 0.10612618227064606
leaf_weight=8396 4459 8530 120 2177 123 6884 171
leaf_count=8396 4459 8530 120 2177 123 6884 171
internal_value=-4.84823e-05 0.000150591 0.000309596 -5.67118e-05 -0.000243867 -0.000263718 0.000781229
internal_weight=30860 15286 8650 6636 15574 15280 294
internal_count=30860 15286 8650 6636 15574 15280 294
is_linear=0
shrinkage=0.0241334


Tree=86
num_leaves=8
num_cat=0
split_feature=20 7 11 7 5 5 5
split_gain=1.98759 0.766074 0.732535 0.705114 0.703601 0.505001 0.409953
threshold=1.5000000000000002 9.82004747001052 -0.5 19.501205231801567 15.61378232822288 8.2363604262537589 18.367242671213685
decision_type=2 2 2 2 2 2 2
left_child=2 5 6 -4 -3 -2 -1
right_child=1 4 3 -5 -6 -7 -8
leaf_value=0.0028133758195342277 -0.041799569711934444 0.047163357993448139 -0.015157443244444926 -0.089315955462956717 0.12970651930645874 0.022542203068097663 -0.051395439383685015
leaf_weight=9839 639 3108 13608 595 390 1990 691
leaf_count=9839 639 3108 13608 595 390 1990 691
internal_value=-4.92642e-05 0.000339781 -0.000145666 -0.000258738 0.000573593 2.84288e-05 6.87336e-06
internal_weight=30860 6127 24733 14203 3498 2629 10530
internal_count=30860 6127 24733 14203 3498 2629 10530
is_linear=0
shrinkage=0.0241334


Tree=87
num_leaves=7
num_cat=0
split_feature=20 1 1 6 1 11
split_gain=1.9967 0.862956 0.749785 0.528492 0.892442 0.46469
threshold=1.0000000180025095e-35 0.48152850004338993 0.079693964549088184 13.345646429537025 0.095041402383596624 0.25881904510252091
decision_type=2 2 2 2 2 2
left_child=3 2 -2 4 -1 -5
right_child=1 -3 -4 5 -6 -7
leaf_value=-0.034666741908884177 -0.016772741154539177 0.97526923831676704 0.015086498582440554 -0.01280538844820534 -0.002209389830570722 -0.036213934154748051
leaf_weight=3372 2468 120 12698 2515 7888 1799
leaf_count=3372 2468 120 12698 2515 7888 1799
internal_value=-4.69184e-05 0.000149012 0.00013269 -0.000239219 -0.000152139 -0.00046628
internal_weight=30860 15286 15166 15574 11260 4314
internal_count=30860 15286 15166 15574 11260 4314
is_linear=0
shrinkage=0.0241334


Tree=88
num_leaves=7
num_cat=0
split_feature=20 1 1 6 1 9
split_gain=1.96465 0.86431 0.721901 0.535733 0.865431 0.633122
threshold=1.0000000180025095e-35 0.48152850004338993 0.054361504293450415 13.345646429537025 0.095041402383596624 2.0249110892586684
decision_type=2 2 2 2 2 2
left_child=3 2 -2 4 -1 -5
right_child=1 -3 -4 5 -6 -7
leaf_value=-0.033830116239466128 -0.033645887480411953 0.95173269480442335 0.013749347518922999 0.011390990332477249 -0.0021560697853566062 -0.031002084552241332
leaf_weight=3372 1355 120 13811 447 7888 3867
leaf_count=3372 1355 120 13811 447 7888 3867
internal_value=-4.69184e-05 0.000147434 0.000131099 -0.000237669 -0.000149996 -0.00046628
internal_weight=30860 15286 15166 15574 11260 4314
internal_count=30860 15286 15166 15574 11260 4314
is_linear=0
shrinkage=0.0241334


Tree=89
num_leaves=7
num_cat=0
split_feature=1 1 13 9 1 5
split_gain=1.75836 0.875895 0.621745 0.599673 0.437862 0.456485
threshold=0.24395243734571673 0.14377721433900792 0.6078576107927941 1.0246637674243069 0.48152850004338993 12.639289602949271
decision_type=2 2 2 2 2 2
left_child=1 2 -1 -3 5 -2
right_child=4 3 -4 -5 -6 -7
leaf_value=-0.0089198790950224364 0.039951482453329322 -0.10190878688647234 -0.031751270956310106 0.0039123619153463383 0.92876416764976222 0.13196541069930356
leaf_weight=11604 885 109 3654 14067 120 421
leaf_count=11604 885 109 3654 14067 120 421
internal_value=-4.30085e-05 -8.31327e-05 -0.000210013 5.34455e-05 0.000783859 0.000652872
internal_weight=30860 29434 15258 14176 1426 1306
internal_count=30860 29434 15258 14176 1426 1306
is_linear=0
shrinkage=0.0241334


Tree=90
num_leaves=8
num_cat=0
split_feature=6 11 9 6 5 6 7
split_gain=0.986181 0.942594 0.566336 0.534026 0.52001 1.26382 0.370426
threshold=13.345646429537025 -0.60355339059327362 1.4532163873021651 16.408926676104858 13.045834465888825 11.539163554249285 6.9797739500018325
decision_type=2 2 2 2 2 2 2
left_child=4 3 -3 -2 6 -6 -1
right_child=1 2 -4 -5 5 -7 -8
leaf_value=-0.030806501306769336 -0.014379425876972751 0.17546036199818058 -0.029616196422740569 0.028994466632883541 0.001765868410487776 0.047807008140474345 0.00032623167049968297
leaf_weight=1896 2115 141 4417 1579 4814 1585 14313
leaf_count=1896 2115 141 4417 1579 4814 1585 14313
internal_value=-4.37905e-05 -0.00026956 -0.000501659 1.69738e-05 3.86375e-05 0.000222802 -3.40907e-05
internal_weight=30860 8252 4558 3694 22608 6399 16209
internal_count=30860 8252 4558 3694 22608 6399 16209
is_linear=0
shrinkage=0.0241334


Tree=91
num_leaves=8
num_cat=0
split_feature=6 11 8 9 5 6 9
split_gain=0.991236 0.918997 0.533752 0.492299 0.489933 1.16784 0.363149
threshold=13.345646429537025 -0.60355339059327362 10.130644779684131 3.0888805862930555 13.045834465888825 11.539163554249285 0.90437482518622991
decision_type=2 2 2 2 2 2 2
left_child=4 2 -2 -3 6 -6 -1
right_child=1 3 -4 -5 5 -7 -8
leaf_value=0.10431914108666843 0.047549971304078294 -0.0099296157961466687 -0.01005656391546309 -0.032479018111886214 0.0017232520364163031 0.046653263427644844 -0.003240332731148249
leaf_weight=85 840 1499 2854 3059 4814 1585 16124
leaf_count=85 840 1499 2854 3059 4814 1585 16124
internal_value=-4.61364e-05 -0.000272484 1.04452e-05 -0.000501659 3.65028e-05 0.000215262 -3.40907e-05
internal_weight=30860 8252 3694 4558 22608 6399 16209
internal_count=30860 8252 3694 4558 22608 6399 16209
is_linear=0
shrinkage=0.0241334


Tree=92
num_leaves=8
num_cat=0
split_feature=20 20 7 6 2 11 11
split_gain=1.85526 0.763646 0.628036 0.553257 0.510753 0.482445 0.449748
threshold=1.0000000180025095e-35 2.5000000000000004 9.0928847116997691 13.345646429537025 12.500000000000002 0.25881904510252091 0.37940952255126054
decision_type=2 2 2 2 2 2 2
left_child=3 6 -3 4 -1 -5 -2
right_child=1 2 -4 5 -6 -7 -8
leaf_value=-0.020551977644721432 0.01540985538973072 -0.0023473061081577917 0.10607211397536792 -0.011236946345588366 0.0066423974004775716 -0.033937595161984302 -0.0069297037259859126
leaf_weight=7480 8927 495 951 2515 3780 1799 4913
leaf_count=7480 8927 495 951 2515 3780 1799 4913
internal_value=-4.30085e-05 0.000145855 0.000673074 -0.000228373 -0.000139282 -0.000460689 9.06572e-05
internal_weight=30860 15286 1446 15574 11260 4314 13840
internal_count=30860 15286 1446 15574 11260 4314 13840
is_linear=0
shrinkage=0.0241334


Tree=93
num_leaves=7
num_cat=0
split_feature=20 1 1 1 6 2
split_gain=1.80889 0.868375 0.688222 0.527193 0.44845 0.0718426
threshold=1.0000000180025095e-35 0.48152850004338993 0.079693964549088184 0.21849367963550087 12.619756179958831 12.500000000000002
decision_type=2 2 2 2 2 2
left_child=3 2 -2 4 -1 -5
right_child=1 -3 -4 5 -6 -7
leaf_value=-0.0115709855683356 -0.016700326949569449 0.90386039713186161 0.014566418710870043 0.0073875521318573249 -0.025479175183480782 0.10326352833956819
leaf_weight=10133 2468 120 12698 123 5147 171
leaf_count=10133 2468 120 12698 123 5147 171
internal_value=-4.37905e-05 0.000142698 0.000126326 -0.000226824 -0.000246347 0.000781229
internal_weight=30860 15286 15166 15574 15280 294
internal_count=30860 15286 15166 15574 15280 294
is_linear=0
shrinkage=0.0241334


Tree=94
num_leaves=7
num_cat=0
split_feature=20 1 11 1 1 11
split_gain=1.73137 0.731324 0.656806 0.617719 0.487262 0.410624
threshold=1.5000000000000002 0.48152850004338993 -0.5 0.094083760286094997 0.1971469704143716 -0.70710678118654735
decision_type=2 2 2 2 2 2
left_child=2 3 5 -2 -4 -1
right_child=1 -3 4 -5 -6 -7
leaf_value=-0.0046975320765760848 -0.010477390530816519 0.8820471903471433 -0.019634007023722234 0.034460045031236744 0.010221712467447103 0.022376364068295563
leaf_weight=8613 1155 120 12504 4852 1699 1917
leaf_count=8613 1155 120 12504 4852 1699 1917
internal_value=-4.30085e-05 0.000320095 -0.000132982 0.000282312 -0.000240051 1.1456e-05
internal_weight=30860 6127 24733 6007 14203 10530
internal_count=30860 6127 24733 6007 14203 10530
is_linear=0
shrinkage=0.0241334


Tree=95
num_leaves=7
num_cat=0
split_feature=20 1 1 1 7 7
split_gain=1.63036 0.873811 0.600545 0.493491 0.582195 0.0285278
threshold=1.0000000180025095e-35 0.48152850004338993 0.054361504293450415 0.3150822511883552 11.481798175420435 10.027775030461909
decision_type=2 2 2 2 2 2
left_child=3 2 -2 4 -1 -5
right_child=1 -3 -4 5 -6 -7
leaf_value=-0.023533783437243837 -0.031110411111524464 0.86076040997931746 0.012284626635160091 0.25923576509367707 -0.0062254938568370825 0.04300591026582392
leaf_weight=8460 1355 120 13811 99 6889 126
leaf_count=8460 1355 120 13811 99 6889 126
internal_value=-4.06627e-05 0.000136384 0.000119962 -0.000214429 -0.000230934 0.000901454
internal_weight=30860 15286 15166 15574 15349 225
internal_count=30860 15286 15166 15574 15349 225
is_linear=0
shrinkage=0.0241334


Tree=96
num_leaves=7
num_cat=0
split_feature=1 6 1 9 1 5
split_gain=1.47661 0.764827 0.731074 0.62935 0.48231 0.404764
threshold=0.24395243734571673 13.345646429537025 0.079475343762596018 8.736502335825044 0.48152850004338993 12.428407168611688
decision_type=2 2 2 2 2 2
left_child=1 2 -1 -3 5 -2
right_child=4 3 -4 -5 -6 -7
leaf_value=-0.025351671541728026 0.02858144655371913 -0.012323435520164181 0.0045806980908328354 -0.052884430495875726 0.83998735157941651 0.12249505394444533
leaf_weight=4046 808 7446 17455 487 120 498
leaf_count=4046 808 7446 17455 487 120 498
internal_value=-4.14446e-05 -7.82137e-05 -3.4797e-06 -0.000280701 0.000716285 0.000579101
internal_weight=30860 29434 21501 7933 1426 1306
internal_count=30860 29434 21501 7933 1426 1306
is_linear=0
shrinkage=0.0241334


Tree=97
num_leaves=7
num_cat=0
split_feature=1 6 11 1 1 5
split_gain=1.34786 0.709336 0.796451 0.696058 0.379657 0.432992
threshold=0.24395243734571673 13.345646429537025 0.25881904510252091 0.079475343762596018 0.48152850004338993 12.428407168611688
decision_type=2 2 2 2 2 2
left_child=1 3 -3 -1 5 -2
right_child=4 2 -4 -5 -6 -7
leaf_value=-0.024739850008853315 0.027891679631901395 -0.0051957683137944409 -0.029367634653867648 0.0044701503613485162 0.81971561729977382 0.11953883421153715
leaf_weight=4046 808 4929 3004 17455 120 498
leaf_count=4046 808 4929 3004 17455 120 498
internal_value=-4.14446e-05 -7.6574e-05 -0.000271577 -4.60199e-06 0.000682498 0.000560658
internal_weight=30860 29434 7933 21501 1426 1306
internal_count=30860 29434 7933 21501 1426 1306
is_linear=0
shrinkage=0.0241334


Tree=98
num_leaves=7
num_cat=0
split_feature=1 1 9 8 1 5
split_gain=1.21667 0.647286 0.593901 0.52765 0.400108 0.34546
threshold=0.24395243734571673 0.14377721433900792 1.0246637674243069 11.202990989887601 0.48152850004338993 12.428407168611688
decision_type=2 2 2 2 2 2
left_child=1 3 -3 -1 5 -2
right_child=4 2 -4 -5 -6 -7
leaf_value=-0.023941018067933688 0.027218559117589271 -0.10209903256205238 0.003891756413430121 -0.0046639977213661574 0.79993310849469501 0.11665395805396385
leaf_weight=7579 808 109 14067 7679 120 498
leaf_count=7579 808 109 14067 7679 120 498
internal_value=-3.90987e-05 -7.24748e-05 4.4935e-05 -0.000181548 0.000648711 0.000523773
internal_weight=30860 29434 14176 15258 1426 1306
internal_count=30860 29434 14176 15258 1426 1306
is_linear=0
shrinkage=0.0241334


Tree=99
num_leaves=8
num_cat=0
split_feature=6 9 5 5 5 5 2
split_gain=0.659804 0.744913 0.692602 0.487207 0.446549 0.446395 0.322082
threshold=13.345646429537025 2.0249110892586684 7.7259002345894459 15.46356500234741 7.2404934971682691 8.489876401049484 5.5000000000000009
decision_type=2 2 2 2 2 2 2
left_child=4 2 -2 -3 6 -6 -1
right_child=1 3 -4 -5 5 -7 -8
leaf_value=0.0022840792506484643 0.18692958017070713 -0.025123105270813569 0.015953964804130544 0.01383854063253989 0.02684908563205907 0.0020266927542833785 -0.03308782555811296
leaf_weight=1459 88 6080 761 1323 2390 17186 1573
leaf_count=1459 88 6080 761 1323 2390 17186 1573
internal_value=-3.51889e-05 -0.000219859 0.000456277 -0.000297531 3.22334e-05 7.44511e-05 -0.000240177
internal_weight=30860 8252 849 7403 22608 19576 3032
internal_count=30860 8252 849 7403 22608 19576 3032
is_linear=0
shrinkage=0.0241334


Tree=100
num_leaves=8
num_cat=0
split_feature=20 7 7 6 11 6 2
split_gain=1.53515 0.791987 0.66245 0.543839 0.679011 0.451059 0.415528
threshold=1.5000000000000002 9.82004747001052 9.9987420120337323 13.425302612660916 0.25881904510252091 8.0642766520457076 13.500000000000002
decision_type=2 2 2 2 2 2 2
left_child=3 5 -3 6 -5 -2 -1
right_child=1 2 -4 4 -6 -7 -8
leaf_value=-0.010018408117643582 -0.050509598708143678 0.13600412701722875 0.044761511478813715 -0.0067212839486002016 -0.030785735739822375 0.011841509700648914 0.01181704188373448
leaf_weight=12946 508 116 3382 3924 2597 2121 5266
leaf_count=12946 508 116 3382 3924 2597 2121 5266
internal_value=-3.3625e-05 0.000308283 0.000546016 -0.000118348 -0.000307422 -8.25425e-06 -5.06137e-05
internal_weight=30860 6127 3498 24733 6521 2629 18212
internal_count=30860 6127 3498 24733 6521 2629 18212
is_linear=0
shrinkage=0.0241334


Tree=101
num_leaves=8
num_cat=0
split_feature=20 7 7 11 6 6 11
split_gain=1.39698 0.715142 0.683349 0.555028 0.936363 0.451059 0.393132
threshold=1.5000000000000002 9.82004747001052 9.9987420120337323 -0.5 13.780201742992206 8.0642766520457076 -0.70710678118654735
decision_type=2 2 2 2 2 2 2
left_child=3 5 -3 6 -5 -2 -1
right_child=1 2 -4 4 -6 -7 -8
leaf_value=-0.0043280932887602994 -0.049290631349102373 0.13272188768511967 0.043681264895400834 -0.0072020595376082542 -0.03307909359700735 0.011555734042634542 0.021721331918275539
leaf_weight=8613 508 116 3382 10928 3275 2121 1917
leaf_count=8613 508 116 3382 10928 3275 2121 1917
internal_value=-3.3625e-05 0.000292534 0.00051844 -0.000114445 -0.000212869 -8.25425e-06 1.83299e-05
internal_weight=30860 6127 3498 24733 14203 2629 10530
internal_count=30860 6127 3498 24733 14203 2629 10530
is_linear=0
shrinkage=0.0241334


Tree=102
num_leaves=7
num_cat=0
split_feature=20 1 1 9 9 1
split_gain=1.35408 0.717396 0.588774 0.28804 0.613478 0.527722
threshold=1.0000000180025095e-35 0.48152850004338993 0.054361504293450415 4.6436038353890048 4.5620298085379973 0.12368374339023414
decision_type=2 2 2 2 2 2
left_child=3 2 -2 4 -1 -5
right_child=1 -3 -4 5 -6 -7
leaf_value=-0.010223009942064321 -0.02810419400744105 0.77838478126207233 0.011634076387481677 -0.040693643165768678 0.029963250428420213 -0.0068779692162144529
leaf_weight=10230 1355 120 13811 2313 216 2815
leaf_count=10230 1355 120 13811 2313 216 2815
internal_value=-3.12791e-05 0.00013007 0.000115189 -0.00018964 -0.000116873 -0.000337737
internal_weight=30860 15286 15166 15574 10446 5128
internal_count=30860 15286 15166 15574 10446 5128
is_linear=0
shrinkage=0.0241334


Tree=103
num_leaves=8
num_cat=0
split_feature=6 13 6 6 5 5 5
split_gain=0.547828 0.460413 0.785518 0.450211 0.300035 0.526075 0.496748
threshold=13.21332153746239 0.6078576107927941 10.695983837271141 13.048711620078455 15.46356500234741 15.02705824877402 19.114735602591924
decision_type=2 2 2 2 2 2 2
left_child=1 3 -3 -1 5 -2 -6
right_child=4 2 -4 -5 6 -7 -8
leaf_value=0.0055854832438098747 -0.015383120633288892 -0.022972630114086626 0.018721908887171571 0.07046639094953551 0.040558682882284501 -0.1258960737277923 -0.030889625021885751
leaf_weight=15317 6980 4234 2551 269 949 142 418
leaf_count=15317 6980 4234 2551 269 949 142 418
internal_value=-3.3625e-05 2.90153e-05 -0.000136889 0.000101248 -0.000198659 -0.000261504 0.000128635
internal_weight=30860 22371 6785 15586 8489 7122 1367
internal_count=30860 22371 6785 15586 8489 7122 1367
is_linear=0
shrinkage=0.0241334


Tree=104
num_leaves=8
num_cat=0
split_feature=20 9 9 17 11 11 2
split_gain=1.30409 0.546271 0.590815 0.563029 0.520122 0.39892 0.317282
threshold=1.5000000000000002 1.7121345617479422 3.4604739518298966 13.131603351955851 -0.5 -0.70710678118654735 13.500000000000002
decision_type=2 2 2 2 2 2 2
left_child=4 3 -3 -2 5 -1 -6
right_child=1 2 -4 -5 6 -7 -8
leaf_value=-0.0041493631391208291 0.18314118258355572 -0.0055199168880037987 0.03474386321967958 0.061323205593577297 -0.018167117092057435 0.021252803345799938 0.00024158927633149529
leaf_weight=8613 103 2228 3538 258 11114 1917 3089
leaf_count=8613 103 2228 3538 258 11114 1917 3089
internal_value=-3.44069e-05 0.000280723 0.000223404 0.00118822 -0.000112494 1.60386e-05 -0.000207772
internal_weight=30860 6127 5766 361 24733 10530 14203
internal_count=30860 6127 5766 361 24733 10530 14203
is_linear=0
shrinkage=0.0241334


Tree=105
num_leaves=7
num_cat=0
split_feature=20 1 11 7 7 9
split_gain=1.34074 0.71863 0.524987 0.466509 0.447035 0.372395
threshold=1.0000000180025095e-35 0.48152850004338993 0.37940952255126054 11.481798175420435 19.501205231801567 13.989791969912028
decision_type=2 2 2 2 2 2
left_child=3 2 -2 5 -5 -1
right_child=1 -3 -4 4 -6 -7
leaf_value=-0.019934079219179911 0.018744751055904143 0.75872360914108783 -0.0052641937459817724 0.001402915307420754 -0.066026381434336617 0.083762303048217662
leaf_weight=8533 9831 120 5335 6265 666 110
leaf_count=8533 9831 120 5335 6265 666 110
internal_value=-3.20611e-05 0.000128491 0.000113598 -0.00018964 -4.21166e-05 -0.000307894
internal_weight=30860 15286 15166 15574 6931 8643
internal_count=30860 15286 15166 15574 6931 8643
is_linear=0
shrinkage=0.0241334


Tree=106
num_leaves=8
num_cat=0
split_feature=20 9 17 9 6 11 6
split_gain=1.26257 0.703435 0.700125 0.656322 0.331069 0.404854 0.361437
threshold=1.0000000180025095e-35 1.5132250638452682 13.316727900814451 3.7095966700528389 17.345485599179501 0.12940952255126045 6.9771583970928264
decision_type=2 2 2 2 2 2 2
left_child=4 2 -2 -3 6 -6 -1
right_child=1 3 -4 -5 5 -7 -8
leaf_value=-0.03101476489393877 0.12580707342882244 -0.0051568374429106847 0.032608488923452188 0.015104299118605323 -0.014902716698900725 -0.064559450274523769 -0.0063589687489973108
leaf_weight=1994 175 6875 268 7968 851 577 12152
leaf_count=1994 175 6875 268 7968 851 577 12152
internal_value=-3.3625e-05 0.000122177 0.00106704 9.37983e-05 -0.000186541 -0.000536463 -0.000151127
internal_weight=30860 15286 443 14843 15574 1428 14146
internal_count=30860 15286 443 14843 15574 1428 14146
is_linear=0
shrinkage=0.0241334


Tree=107
num_leaves=8
num_cat=0
split_feature=20 20 1 9 5 9 13
split_gain=1.13744 0.629429 0.504334 0.441598 0.393615 1.29111 0.336089
threshold=1.0000000180025095e-35 2.5000000000000004 0.094083760286094997 3.7095966700528389 11.754111168273317 4.6143113520185119 1.0000000180025095e-35
decision_type=2 2 2 2 2 2 2
left_child=4 3 -3 -2 6 -6 -1
right_child=1 2 -4 -5 5 -7 -8
leaf_value=-0.0074330246656443329 -0.0055251182885571589 -0.0042732418993319662 0.084162928222753661 0.011906181914268295 0.014464056545959475 -0.039620842748255267 -0.025854248332821739
leaf_weight=4092 6584 394 1052 7256 4016 2606 4860
leaf_count=4092 6584 394 1052 7256 4016 2606 4860
internal_value=-3.67528e-05 0.000111128 0.000589773 6.10191e-05 -0.000181893 -4.08024e-05 -0.00028622
internal_weight=30860 15286 1446 13840 15574 6622 8952
internal_count=30860 15286 1446 13840 15574 6622 8952
is_linear=0
shrinkage=0.0241334


Tree=108
num_leaves=8
num_cat=0
split_feature=6 9 11 8 13 6 17
split_gain=0.554436 0.704548 0.521244 0.474029 0.43678 0.699207 0.3858
threshold=13.21332153746239 2.0249110892586684 -0.60355339059327362 11.032137554864134 0.6078576107927941 10.695983837271141 13.198909005301667
decision_type=2 2 2 2 2 2 2
left_child=4 3 -3 -2 6 -6 -1
right_child=1 2 -4 -5 5 -7 -8
leaf_value=-0.0027740421665549044 0.059522346584869171 -0.0029710432332929852 -0.025209810403835114 -0.035773268429747845 -0.021749749487213553 0.01773949123590602 0.013142646504226479
leaf_weight=7116 680 3332 4288 189 4234 2551 8470
leaf_count=7116 680 3332 4288 189 4234 2551 8470
internal_value=-3.83168e-05 -0.000204344 -0.000278613 0.000445807 2.47007e-05 -0.000136889 9.50557e-05
internal_weight=30860 8489 7620 869 22371 6785 15586
internal_count=30860 8489 7620 869 22371 6785 15586
is_linear=0
shrinkage=0.0241334


Tree=109
num_leaves=8
num_cat=0
split_feature=20 7 7 7 5 11 6
split_gain=1.1279 0.72125 0.709914 0.516251 0.542889 0.42851 0.40118
threshold=1.5000000000000002 9.82004747001052 9.9987420120337323 19.501205231801567 11.905578155505983 -0.78656609248549292 8.0642766520457076
decision_type=2 2 2 2 2 2 2
left_child=3 6 -3 4 -1 -5 -2
right_child=1 2 -4 5 -6 -7 -8
leaf_value=-0.012512213714606087 -0.050215516052796665 0.12855329427955511 0.039464835218506293 -0.00018888565048730241 0.0036007619870309752 -0.07944702285719929 0.0080023345623817417
leaf_weight=14069 508 116 3382 384 9549 731 2121
leaf_count=14069 508 116 3382 384 9549 731 2121
internal_value=-3.59709e-05 0.000257099 0.000483969 -0.000108591 -8.45982e-05 -0.00061545 -4.49373e-05
internal_weight=30860 6127 3498 24733 23618 1115 2629
internal_count=30860 6127 3498 24733 23618 1115 2629
is_linear=0
shrinkage=0.0241334


Tree=110
num_leaves=7
num_cat=0
split_feature=1 7 17 1 1 5
split_gain=1.0312 0.533713 0.714811 0.538839 0.316305 0.267797
threshold=0.24395243734571673 19.501205231801567 13.406838164907866 0.14377721433900792 0.48152850004338993 12.428407168611688
decision_type=2 2 2 2 2 2
left_child=1 3 -3 -1 5 -2
right_child=4 2 -4 -5 -6 -7
leaf_value=-0.0094295382880046769 0.022716718864776178 -0.069580252956600058 0.043852536669131276 0.0052719720587349785 0.73714240137020948 0.11181621706654378
leaf_weight=14443 808 1118 254 13619 120 498
leaf_count=14443 808 1118 254 13619 120 498
internal_value=-3.51889e-05 -6.5916e-05 -0.000530228 -4.31687e-05 0.00059803 0.000486887
internal_weight=30860 29434 1372 28062 1426 1306
internal_count=30860 29434 1372 28062 1426 1306
is_linear=0
shrinkage=0.0241334


Tree=111
num_leaves=7
num_cat=0
split_feature=1 13 1 9 1 5
split_gain=1.01598 0.554129 0.517114 0.462553 0.316305 0.267797
threshold=0.24395243734571673 0.6078576107927941 0.05033029743276813 2.9378826135005514 0.48152850004338993 12.428407168611688
decision_type=2 2 2 2 2 2
left_child=1 2 -1 -3 5 -2
right_child=4 3 -4 -5 -6 -7
leaf_value=-0.03562438214697787 0.02216848764716766 0.0026755975013990001 0.0025816118508002442 -0.02180975073280841 0.71935266339530157 0.1091177137661479
leaf_weight=1966 808 3060 18399 6009 120 498
leaf_count=1966 808 3060 18399 6009 120 498
internal_value=-3.04971e-05 -6.0997e-05 8.88612e-06 -0.000217882 0.00059803 0.000486887
internal_weight=30860 29434 20365 9069 1426 1306
internal_count=30860 29434 20365 9069 1426 1306
is_linear=0
shrinkage=0.0241334


Tree=112
num_leaves=8
num_cat=0
split_feature=20 1 9 6 9 6 6
split_gain=1.03133 0.528599 0.53651 0.298027 0.553006 0.514552 0.277459
threshold=1.0000000180025095e-35 0.054361504293450415 1.5132250638452682 12.619756179958831 2.888248688322224 10.63254741226252 17.345485599179501
decision_type=2 2 2 2 2 2 2
left_child=3 6 -3 5 -5 -1 -2
right_child=1 2 -4 4 -6 -7 -8
leaf_value=-0.013682346085672542 -0.011103405195612754 0.072773677346090304 0.0083801475069716583 0.0037131595665491671 -0.033776563421400015 0.013430878364188156 -0.11771012707755928
leaf_weight=7253 1215 416 13515 1506 3716 3099 140
leaf_count=7253 1215 416 13515 1506 3716 3099 140
internal_value=-3.2843e-05 0.000107971 0.000152245 -0.000171048 -0.000319651 -9.60255e-05 -0.000346653
internal_weight=30860 15286 13931 15574 5222 10352 1355
internal_count=30860 15286 13931 15574 5222 10352 1355
is_linear=0
shrinkage=0.0241334


Tree=113
num_leaves=8
num_cat=0
split_feature=1 13 6 8 17 8 5
split_gain=0.774437 0.529817 0.554172 0.438489 0.188206 0.411862 0.336887
threshold=0.24395243734571673 0.6078576107927941 13.780201742992206 14.827892392864333 13.131603351955851 10.455979645257669 10.821317383246345
decision_type=2 2 2 2 2 2 2
left_child=1 2 -1 -3 6 -6 -2
right_child=4 3 -4 -5 5 -7 -8
leaf_value=0.0050246693406296302 0.0099193330754740634 -0.015379178850162132 -0.013719868522434897 0.037405404514450784 0.087883740784147832 -0.0041083401023431863 0.21105646212200951
leaf_weight=15825 308 8793 4540 276 261 613 244
leaf_count=15825 308 8793 4540 276 261 613 244
internal_value=-3.51889e-05 -6.18168e-05 6.51634e-06 -0.000215222 0.000513562 0.000291838 0.000861659
internal_weight=30860 29434 20365 9069 1426 874 552
internal_count=30860 29434 20365 9069 1426 874 552
is_linear=0
shrinkage=0.0241334


Tree=114
num_leaves=8
num_cat=0
split_feature=20 9 9 17 7 5 7
split_gain=0.91875 0.51193 0.517398 0.438336 0.400339 0.605223 0.468262
threshold=1.0000000180025095e-35 1.5132250638452682 3.6621235203724205 13.316727900814451 11.481798175420435 14.548219931735867 19.501205231801567
decision_type=2 2 2 2 2 2 2
left_child=4 3 -3 -2 5 -1 -6
right_child=1 2 -4 -5 6 -7 -8
